#include <stdio.h>
#include <stdlib.h>

float conv1_weight[] = {-0.06818866f, -0.034647197f, -0.052256513f, 0.025863186f, 0.016200466f, 0.021898465f, -0.012396786f, 0.026329461f, 0.037946686f, -0.0055877385f, 0.001271646f, -0.022464316f, -0.021591725f, -0.08545866f, 0.017723706f, -0.069224305f, -0.07568145f, 0.016796907f, -0.034886092f, -0.01779639f, 0.010675218f, 0.0047846613f, -0.084545195f, -0.023657395f, -0.01880425f, 0.004847253f, -0.050883934f, -0.056465857f, -0.03741246f, -0.0743338f, -0.076803796f, -0.06274966f, -0.022278786f, -0.00084375223f, -0.085787565f, -0.06994905f, -0.032386683f, -0.027444925f, 0.04297905f, -0.078698754f, -0.032470312f, 0.020639159f, -0.00097092724f, -0.033493135f, 0.032756668f, -0.0018078828f, 0.04423501f, 0.019181727f, -0.077594794f, 0.04260199f, -0.052049916f, 0.012978904f, 0.029600676f, -0.021553494f, 0.028155169f, -0.03802478f, -0.06382763f, -0.06046944f, -0.077984706f, 0.03271878f, 0.028844604f, -0.070105076f, -0.014609308f, -0.05866485f, 0.041923057f, -0.03609161f, -0.04296096f, -0.054198425f, 0.0033738436f, -0.05757245f, -0.037635475f, -0.008307554f, -0.070580795f, 0.02626787f, -0.047093917f, -0.046857543f, -0.05637494f, -0.046217132f, -0.047692098f, 0.0032246874f, -0.08265195f, -0.027565343f, -0.0019029635f, -0.011429048f, 0.0475192f, -0.04860613f, -0.07326703f, 0.027521668f, -0.08454085f, -0.041159462f, -0.053748928f, -0.03595501f, -0.0054286774f, 0.03323043f, -0.082427755f, 0.0047133854f, 0.0140404925f, -0.06763307f, -0.0024125488f, -0.0008567577f, 0.028578166f, 0.020865304f, -0.059352785f, -0.0041850153f, 0.012445007f, 0.037022088f, -0.044358872f, -0.06976375f, -0.010949475f, -0.072736554f, -0.05592122f, -0.07696799f, -0.019174352f, -0.06714905f, 0.0179438f, -0.017926509f, 0.009139681f, 0.029620068f, -0.049803104f, -0.064908415f, 0.0117388815f, -0.049555253f, -0.0721878f, 0.034436498f, -0.019140877f, 0.05148837f, -0.0645467f, 0.0020784808f, 0.006559993f, -0.0042496226f, -0.041346334f, -0.016030142f, -0.06587516f, 0.04338197f, -0.07716869f, 0.032944642f, -0.042469166f, -0.027188545f, 0.040809654f, 0.04252749f, -0.08032862f, -0.043645587f, 0.008595766f, -0.03832844f, -0.0043171644f, 0.003392667f, -0.02095893f, -0.06291414f, -0.0565015f, -0.02654121f, -0.03229058f, 0.03015478f, -0.013448073f, 0.011006978f, -0.037001017f, -0.021443887f, 0.00298444f, -0.048507497f, 0.036346f, 0.024298353f, -0.010073037f, -0.04824414f, -0.039228585f, 0.040210187f, -0.07856641f, -0.037207637f, -0.0045128907f, 0.00952502f, -0.07083755f, 0.03700233f, -0.041661993f, -0.03191532f, 0.026743801f, -0.0009798225f, -0.06164701f, -0.006398333f, 0.03479697f, 0.000771311f, -0.03849005f, -0.032687034f, -0.019480772f, -0.07675626f, -0.023607792f, -0.01499186f, 0.005449235f, -0.059811648f, -0.013214053f, 0.050124526f, 0.023096647f, 0.011349213f, -0.054667104f, -0.06884817f, -0.037637215f, -0.007313831f, 0.0057671727f, -0.008138482f, -6.974135e-05f, -0.017909478f, 0.037641607f, 0.031272832f, 0.0123749105f, -0.04560759f, 0.0012501171f, 0.0068103774f, -0.047783412f, -0.028646529f, -0.015943347f, 0.014006745f, 0.046533715f, -0.012973307f, 0.003339938f, -0.073251314f, 0.036045678f, 0.052069034f, 0.0007729816f, -0.001863613f, -0.026177991f, 0.00863392f, -0.024735423f, 0.0011435047f, -0.024981013f, 0.0019060796f, -0.048388325f, 0.024206197f, -0.040524665f, -0.00014330568f, -0.035063483f, -0.0032088195f, -0.023031164f, 0.029410588f, 0.007193232f, 0.042025242f, -0.019859212f, -0.040425003f, 0.047901906f, 0.026868878f, -0.018558834f, 0.03962696f, 0.030294f, -0.043103542f, 0.053225778f, 0.028508358f, 0.006305445f, 0.013052899f, -0.045159664f, -0.003688272f, -0.045772813f, 0.0006733798f, -0.022749363f, 0.0418f, 0.004103133f, 0.003020571f, -0.042912353f, -0.019330699f, -0.019609949f, -0.044392243f, 0.009571876f, -0.07295947f, 0.039052773f, 0.03321093f, 0.01634568f, -0.027775906f, -0.07784225f, 0.00034207842f, 0.050267577f, 0.00013436296f, -0.02162238f, 0.036798067f, -0.075443f, 0.051723972f, -0.08019408f, 0.0019015583f, -0.008319708f, -0.034337398f, -0.0747176f, -0.065292805f, -0.06585902f, -0.05477791f, -0.0023044413f, -0.050144456f, -0.00883055f, -0.025330141f, -0.0005419252f, 0.032067526f, -0.0719836f, 0.04873698f, 0.009792749f, -0.034756f, 0.004900181f, 0.017009303f, -0.027991507f, 0.04718319f, 0.020338723f, -0.07962664f, -0.0018698366f, -0.01603457f, -0.055062097f, -0.03748562f, -0.07154554f, -0.035804745f, -0.079424426f, 0.015323264f, 0.051173504f, 0.027906813f, -0.012899978f, -0.032074977f, 0.02369795f, -0.034325745f, -0.06317359f, 0.02818135f, 0.051823765f, -0.0329206f, -0.019990116f, -0.04596332f, 0.001855283f, -0.059686508f, 0.030689994f, 0.03581545f, -0.0062338626f, -0.007823984f, -0.06650025f, -0.022916455f, 0.025278531f, -0.013348461f, -0.07238011f, 0.019875847f, -0.01050129f, 0.019830775f, -0.014714448f, -0.010925653f, 0.046949524f, 0.04736659f, 0.0046140864f, -0.05346483f, 0.0020552885f, -0.023420073f, 0.040207233f, -0.033936873f, 0.0087947585f, -0.030489331f, 0.012295889f, 0.052125145f, -0.0396618f, -0.047616057f, 0.012405384f, -0.030579463f, 0.024604037f, 0.027560398f, -0.028705869f, 0.03243911f, 0.0022478176f, -0.023004875f, -0.014335476f, 0.025836244f, 0.02317291f, 0.04754548f, -0.022518804f, -0.018792573f, 0.01820791f, -0.07007908f, 0.027342165f, -0.055199843f, 0.04118849f, -0.0880658f, 0.009584727f, 0.01946995f, 0.021821039f, -0.04466105f, -0.05131595f, -0.01209916f, -0.0057397923f, -0.07879795f, -0.033120453f, -0.0050955545f, 0.027075011f, -0.037340317f, 0.030471833f, 0.0069274115f, -0.010859929f, -0.06780636f, -0.07568707f, 0.02446034f, -0.06709442f, -0.0009266829f, -0.0073657394f, -0.046950795f, 0.037619956f, 0.021255605f, -0.020834448f, -0.0022786944f, -0.052444354f, -0.049260218f, -0.043181404f, 0.0034020056f, -0.00055287866f, 0.02811957f, -0.0134104965f, -0.03876692f, 0.025120655f, -0.07740878f, 0.021406092f, -0.050873067f, -0.05583605f, -0.029969174f, 0.034210127f, -0.09484865f, 0.037420675f, 0.033102497f, -0.0006466367f, 0.00977111f, -0.026236633f, -0.022915194f, -0.07566055f, -0.061001755f, -0.068626754f, 0.012106784f, -0.017121334f, -0.061077174f, -0.055403262f, -0.08560358f, -0.06883774f, 0.0029170285f, 0.012286845f, 0.01120233f, -0.024568977f, -0.08140996f, -0.041779235f, -0.07338473f, 0.02319726f, 0.009443933f, -0.08778552f, -0.030997328f, -0.043096792f, -0.02660759f, -0.021868037f, -0.004063477f, -0.02922086f, -0.0074601746f, 0.022933811f, 0.023916148f, -0.03355056f, -0.04572462f, 0.034110356f, -0.084877476f, 0.030317074f, 0.02211454f, -0.051980637f, -0.055645492f, -0.0333537f, 0.021010157f, -0.068825364f, 0.007616543f, -0.06928866f, -0.030347452f, -0.052147426f, -0.069683164f, -0.076296404f, -0.04914273f, -0.036975574f, -0.05933767f, -0.098927915f, -0.033362176f, -0.052974284f, 0.033581167f, -0.08669287f, -0.05373402f, -0.057577007f, -0.040496226f, -0.033055186f, -0.078181885f, 0.024406943f, -0.037362576f, -0.071380146f, 0.02336313f, -0.021472562f, -0.03767159f, -0.037653923f, -0.066631176f, -0.06643081f, -0.021160115f, -0.08783246f, 0.025319755f, -0.014690946f, -0.07034876f, -0.002439414f, -0.045881294f, 0.021459524f, -0.03704984f, -0.00017452857f, -0.04106764f, -0.009311832f, 0.018116048f, -0.054099914f, -0.028199749f, 0.016153092f, -0.04238937f, -0.027708083f, -0.091531344f, -0.0011668798f, -0.052836914f, -0.0032480545f, -0.019488245f, -0.06759423f, -0.0010681382f, -0.05669639f, -0.022485655f, 0.015116928f, 0.031801768f, -0.03740376f, 0.0019836072f, -0.040090688f, -0.087743156f, -0.028812695f, 0.026816301f, 0.020028433f, 0.032889824f, 0.01638863f, 0.021913113f, 0.028904188f, 0.013800765f, -0.0038834955f, -0.073682845f, 0.028360225f, -0.045923825f, 0.015245374f, -0.008964448f, -0.089294046f, 0.018965837f, -0.011570897f, -0.04338487f, -0.09522618f, -0.0032004877f, 0.008908625f, -0.07588849f, 0.0030320527f, 0.03291232f, -0.014612295f, 0.015494908f, -0.078099065f, -0.067317635f, 0.014168694f, 0.018406631f, -0.0115926955f, -0.059617236f, -0.0919328f, -0.053726595f, -0.08872235f, -0.036960833f, 0.016701097f, 0.024109222f, -0.056091283f, -0.017424865f, -0.027705658f, -0.04291479f, -0.08572522f, -0.09541882f, -0.08156587f, -0.09160448f, -0.0270842f, 0.0057689166f, -0.053134345f, -0.025607899f, -0.034408487f, 0.0009721575f, -0.0027088262f, -0.08463867f, -0.022016937f, -0.049666926f, 0.035550628f, -0.0660007f, 0.0059649833f, -0.08771434f, -0.024080602f, -0.05593945f, -0.05347362f, -0.017544046f, -0.028021784f, -0.012291095f, -0.04754725f, -0.06334258f, 0.03259643f, -0.029824954f, -0.0058739f, 0.01069883f, -0.08648489f, -0.05085252f, -0.05827721f, -0.07675884f, 0.015996901f, -0.06974238f, 0.035521608f, -0.020829516f, -0.026280163f, 0.0100171175f, -0.033082083f, 0.0074595194f, -0.04396954f, 0.015671985f, -0.055635255f, -0.06301011f, -0.025761772f, -0.055498682f, -0.072073705f, -0.038595326f, 0.02838082f, 0.03158679f, -0.014134135f, -0.090692766f, -0.030572722f, 0.015979046f, 0.024645057f, -0.049786538f, 0.034953196f, -0.04934803f, -0.051755164f, -0.016410507f, 0.018425787f, 0.03888221f, -0.047215827f, -0.018561745f, -0.057542656f, -0.048805002f, 0.011801539f, -0.00965818f, 0.037781984f, 0.015759302f, -0.066491924f, -0.01673334f, -0.0051415386f, 0.023179222f, 0.03009106f, 0.025788225f, 0.032086104f, -0.044950206f, 0.012137211f, -0.055527005f, 0.028594704f, -0.06436949f, -0.029556876f, -0.050062727f, -0.074791625f, -0.04564996f, 0.022207972f, 0.023756504f, -0.092530794f, -0.025691671f, -0.056418628f, 0.022911401f, 0.019574234f, -0.002445679f, -0.053993866f, -0.018477215f, -0.059011847f, 0.0189342f, -0.018597504f, -0.08445375f, -0.053310852f, -0.003214581f, -0.07653865f, -0.042983904f, -0.047149047f, -0.094810486f, -0.03525882f, -0.06155782f, 0.003301808f, -0.018412841f, 0.0040440983f, 0.005543961f, -0.051516987f, -0.09532255f, 0.01783084f, 0.009031859f, 0.020320999f, 0.026709924f, -0.019038059f, 0.027923847f, -0.01650326f, -0.05204016f, -0.026857464f, -0.011256927f, -0.0770993f, -0.080219194f, -0.081525624f, -0.07694879f, -0.05964716f, 0.00086624845f, -0.056281492f, -0.08992785f, -0.048679292f, 0.0033114892f, 0.022842009f, -0.063613005f, -0.0745634f, -0.03750783f, -0.08630455f, -0.019147912f, 0.0018176484f, -0.052543703f, -0.06442806f, 0.0074722366f, -0.06292303f, -0.066314906f, -0.071951546f, -0.008962883f, 0.0022994787f, -0.07682672f, -0.07369711f, -0.00440873f, -0.022879053f, -0.010040736f, -0.058118857f, -0.07751985f, 0.019408714f, -0.016700206f, -0.046358533f, -0.019181727f, -0.005021479f, -0.06272898f, 0.012800404f, -0.009569846f, -0.08651385f, 0.014684238f, 0.030311113f, -0.09659474f, -0.032726977f, -0.03320555f, 0.036112037f, 0.012139353f, -0.07241482f, -0.05479679f, 0.008715382f, -0.06643156f, -0.016829997f, 0.037439797f, -0.0037199035f, -0.05309513f, -0.064543456f, 0.03476135f, -0.015169167f, 0.043528162f, -0.038225215f, 0.038456026f, -0.005030617f, -0.047306884f, 0.0027430346f, 0.03148958f, 0.023860604f, -0.023114966f, 0.017858576f, 0.03676723f, 0.041898824f, -0.026788594f, -0.0043273587f, 0.030356724f, -0.015010859f, -0.043812234f, -0.04160414f, -0.048890274f, 0.0024561407f, 0.052509017f, 0.003684402f, 0.027588477f, -0.070564605f, 0.003444123f, -0.02857357f, 0.02900481f, -0.060293403f, 0.040415064f, -0.00899717f, -0.022755822f, -3.9162387e-05f, -0.009521348f, -0.07209073f, 0.0352027f, 0.032630894f, -0.072743624f, 0.030799655f, 0.015223379f, 0.023539312f, -0.06273238f, 0.028329192f, 0.0011211672f, -0.044138473f, 0.0486889f, -0.027169464f, -0.0032968766f, 0.004979494f, -0.050783005f, 0.034742605f, -0.033103313f, -0.05862881f, 0.0014747472f, -0.03886962f, 0.054334797f, 0.033558507f, -0.047012582f, 0.0027404358f, 0.0016210858f, -0.037923325f, 0.041058537f, 0.034257967f, 0.051838554f, 0.035437208f, -0.04107576f, 0.01472923f, 0.03970525f, 0.015089339f, -0.051353544f, -0.038125396f, -0.069654815f, -0.00614259f, 0.04694416f, 0.038443256f, -0.04537138f, -0.042608444f, -0.062167574f, -0.07396317f, -0.03447773f, -0.046835374f, 0.05627913f, -0.044959415f, -0.0156481f, -0.059002914f, -0.0008423418f, -0.06963663f, 0.0070208483f, -0.0353973f, -0.06069649f, -0.026363254f, -0.056482427f, -0.048721835f, 0.053538367f, 0.052682962f, -0.077401996f, -0.047275733f, -0.053843558f, 0.010915161f, -0.043193344f, 0.008632706f, -0.04976859f, -0.0018375401f, -0.0026946915f, 0.053198405f, 0.015673967f, 0.05245565f, -0.06278125f, 0.05548108f, 0.047160506f, -0.04636916f, -0.05642663f, 0.010037486f, -0.06323942f, 0.013712017f, -0.05470812f, -0.05448553f, -0.038218997f, -0.026340423f, -0.0065056197f, 0.057386465f, -0.05543885f, -0.045391195f, 0.058027185f, -0.044117995f, 0.044653814f, 0.008432861f, -0.047267396f, 0.04321666f, 0.02513121f, 0.002001059f, -0.023754995f, -0.037480514f, 0.054355826f, 0.047495745f, -0.052374132f, -0.0675506f, -0.03875552f, -0.0047687693f, -0.033417568f, -0.0418253f, -0.07557667f, 0.0580705f, -0.0060236026f, 0.011244956f, -0.041380264f, -0.006440891f, 0.017012559f, -0.029667934f, -0.03270416f, 0.009715033f, 0.023383453f, -0.010551883f, 0.02840154f, 0.035321765f, 0.0040083933f, -0.03692235f, 0.032797918f, -0.038848013f, 0.01719525f, -0.047334187f, -0.024229173f, -0.0047899447f, 0.056648757f, 0.043230783f, 0.030953154f, 0.04580612f, -0.056304812f, 0.023833517f, -0.016179884f, -0.043835733f, 0.008818921f, -0.038904216f, -0.016810376f, 0.011363872f, 0.012005656f, -0.037471116f, 0.022247463f, -0.0235096f, -0.010446437f, -0.027106265f, 0.013993621f, 0.018271709f, 0.02980259f, -0.022828246f, -0.07170208f, -0.021054031f, -0.066295296f, 0.05416933f, 0.038271375f, 0.050922405f, -0.038602445f, -0.01778461f, -0.057121657f, -0.0025029164f, -0.0034574626f, -0.04738709f, 0.016101822f, -0.01018702f, -0.037544362f, -0.002244845f, 0.01479875f, 0.034200516f, -0.0635895f, -0.022668323f, -0.03698288f, 0.014992702f, -0.0015102796f, 0.0053989333f, 0.011919639f, 0.022351934f, -0.069080405f, -0.017122544f, -0.006060109f, 0.0004827074f, -0.057273973f, 0.01393317f, -0.009505388f, 0.022804108f, -0.063854724f, -0.047958363f, 0.019271629f, 0.046257187f, 0.023807932f, 0.042262323f, -0.07592403f, -0.04476041f, -0.0029857198f, 0.03327211f, -0.07249905f, -0.0666421f, 0.042760924f, 0.046647303f, -0.060301043f, -0.022440169f, -0.030125767f, -0.022385038f, 0.021279318f, -0.02857076f, 0.017624099f, 0.020228788f, -0.068531804f, 0.019818276f, 0.05800235f, -0.023370357f, 0.053869773f, 0.014469965f, -0.016664209f, 0.009838554f, -0.07292776f, 0.03442877f, 0.0036105528f, -0.04571092f, 0.047425337f, -0.0629266f, 0.019070359f, 0.014512075f, 0.05519004f, -0.046558887f, -0.06156233f, -0.03998105f, 0.049577422f, 0.05528485f, 0.027972901f, 0.019138878f, -0.050003376f, 0.055771805f, -0.03140231f, -0.055349056f, 0.03183017f, 0.02016165f, 0.04103414f, -0.062419582f, -0.02788591f, 0.022766653f, -0.00026858263f, 0.03787787f, 0.026513405f, -0.041357715f, 0.026215352f, 0.0014905006f, 0.0525494f, -0.05274997f, -0.0017154727f, -0.054434292f, 0.0085088f, 0.0352725f, -0.07491085f, 0.045744218f, -0.030109372f, 0.055349287f, -0.038246945f, -0.0281403f, -0.015185451f, 0.0036313934f, -0.06651146f, -0.041888885f, -0.072739035f, 0.033024367f, -0.03150629f, 0.020080151f, -0.011452689f, -0.008481378f, 0.028784502f, -0.009819903f, 0.016691022f, 0.0120557435f, 0.039589293f, 0.024763081f, -0.040487964f, -0.041605942f, 0.0021488955f, 0.042885154f, -0.031625412f, -0.03211402f, -0.0013576776f, 0.013162292f, -0.03431713f, 0.043912098f, -0.045042753f, -0.07199194f, -0.03598807f, -0.061728008f, 0.03190535f, -0.061808992f, -0.025226507f, -0.074765876f, -0.06890105f, -0.01682238f, -0.061636258f, -0.032367177f, -0.01411908f, -0.014097951f, -0.025161725f, -0.0016846365f, -0.07379509f, 0.027194625f, -0.02962264f, -0.0354048f, -0.0012833985f, -0.0070394278f, -0.06474933f, -0.00662155f, -0.04059753f, 0.023339912f, 0.0040887f, 0.02334997f, 0.026504027f, 0.0015827637f, -0.062196333f, -0.0039230613f, 0.018103218f, 0.05781134f, 0.06072411f, -0.06362135f, -0.04294998f, -0.045272112f, -0.05605431f, -0.035243977f, -0.026513973f, -0.026909733f, -0.015951375f, 0.026469436f, -0.041100625f, -0.036889475f, -0.012014611f, 0.028273337f, -0.015612459f, -0.05273033f, -0.05713893f, -0.06592349f, -0.038455006f, -0.056241717f, -0.03936923f, 0.013749802f, -0.026403127f, 0.045919735f, 0.03790265f, -0.04654311f, -0.006880582f, 0.0541122f, 0.02876089f, -0.052468285f, 0.05749176f, 0.051600594f, -0.035781786f, -0.020222634f, -0.060705785f, -0.010628825f, 0.03656788f, 0.056383785f, 0.0036415344f, -0.012658396f, -0.019750575f, -0.0311995f, 0.02613992f, -0.020495756f, 0.02584536f, 0.025417399f, -0.045884263f, -0.075508334f, 0.015850374f, 0.040261194f, -0.05627819f, -0.06406251f, 0.017757807f, -0.039614994f, -0.05475176f, 0.040203046f, -0.06345987f, 0.049360365f, -0.060489465f, 0.048851453f, 0.03725172f, -0.00022036584f, -0.023145264f, 0.046238422f, -0.025947025f, -0.062487118f, -0.033061404f, -0.03302637f, -0.02471772f, 0.004763231f, -0.044160705f, -0.0006413429f, 0.040163383f, -0.030797197f, -0.0123836445f, -0.06635636f, -0.030531025f, 0.045281395f, 0.0025169195f, 0.016923964f, -0.015891055f, -0.03127889f, -0.05264041f, 0.013422178f, -0.03149037f, 0.019179009f, -0.013527511f, 0.014600088f, 0.04396997f, 0.0007611465f, 0.05391674f, -0.05931741f, -0.031413842f, -0.040949132f, -0.024650501f, -0.041608706f, 0.03046584f, -0.06747623f, -0.035359267f, -0.048234295f, -0.052630126f, -0.048995968f, -0.011754493f, 0.03283236f, 0.015789032f, -0.043545544f, 0.027791442f, 0.058131047f, -0.03045666f, 0.033981953f, -0.043385573f, -0.053823616f, 0.00033173637f, 0.04891889f, -0.052612152f, -0.045037977f, -0.033298552f, -0.06042946f, -0.036328655f, -0.0076417043f, 0.041038677f, -0.019820442f, 0.0047071213f, -0.06703099f, -0.021167168f, 0.06058896f, 0.009072689f, 0.05909975f, 0.02051162f, 0.0071804384f, -0.050096776f, -0.061070736f, -0.02684393f, -0.072809845f, -0.0034455277f, 0.045027427f, -0.057857312f, 0.043237712f, 0.008602421f, -0.0106705995f, 0.02877311f, -0.007156805f, -0.028251635f, 0.015771845f, -0.018804625f, -0.008917652f, 0.029431572f, -0.014588797f, 0.045408554f, 0.028066922f, -0.018022398f, -0.059042744f, 0.018427879f, -0.07555776f, -0.025301866f, -0.07368055f, 0.036407333f, -0.056099888f, -0.068731524f, 0.052613344f, 0.015097504f, -0.012563414f, 0.05591472f, 0.046463683f, 0.04401601f, -0.040840223f, -0.06534648f, -0.043178607f, -0.019871704f, 0.0476409f, -0.053590707f, 0.059015244f, -0.060601898f, -0.04749207f, 0.021121956f, -0.03237971f, -0.026015827f, -0.012111125f, -0.05509221f, -0.04990536f, -0.033511173f, 0.048325967f, 0.021437794f, -0.071471766f, -0.0142756365f, -0.053669363f, 0.037055228f, 0.039724965f, 0.002862085f, -0.022012033f, 0.04737135f, -0.0381124f, 0.037977777f, -0.039098207f, -0.012498926f, -0.04710939f, 0.053454965f, 0.01945882f, 0.037319332f, 0.049818877f, 0.02659559f, -0.067981854f, -0.04809286f, -0.047337353f, -0.038186356f, 0.017654696f, 0.0032581582f, -0.063471176f, 0.0311974f, 0.037936796f, -0.041473534f, -0.03629708f, -0.015092243f, -0.033792373f, -0.03341358f, -0.025643112f, 0.0004935852f, 0.0125202965f, -0.07331666f, -0.0056117517f, -0.07480868f, -0.06324065f, -0.0030978655f, 0.016950648f, -0.056774985f, -0.06737049f, -0.051581502f, 0.048995167f, -0.0029397076f, 0.006175231f, -0.030654216f, -0.04854265f, 0.04721239f, 0.014143088f, 0.040207673f, 0.040809114f, -0.032834314f, -0.013262555f, 0.046560813f, -0.04506667f, 0.03505819f, 0.0071429857f, -0.017478721f, -0.038414128f, -0.042593114f, 0.044966105f, -0.0712918f, 0.017736323f, -0.04108617f, 0.011385363f, -0.061049365f, -0.028820429f, -0.00011485646f, 0.018018328f, -0.03477183f, 0.037902445f, 0.012074038f, -0.021234812f, 0.022924153f, 0.0073005515f, 0.036231305f, -0.014442102f, 0.024053754f, 0.052714374f, -0.047664285f, -0.057905186f, -0.001245627f, -0.0051735737f, -0.0014299566f, -0.037241343f, -0.028421076f, -0.054622665f, 0.014048581f, 0.009933539f, 0.022954147f, 0.05581255f, -0.025585558f, -0.060259975f, -0.06208911f, -0.04191809f, -0.043355238f, 0.0008651596f, -0.045750946f, 0.041722286f, -0.06174256f, 0.03361361f, 0.044601537f, -0.04128754f, 0.0025715176f, 0.03707483f, -0.015720528f, 0.03901891f, -0.0127729f, -0.04140857f, 0.0017124978f, 0.020845477f, 0.023143455f, 0.019878525f, 0.05007632f, -0.05321635f, -0.018248493f, 0.023598304f, 0.015425995f, 0.044969875f, 0.05129587f, -0.00035154485f, -0.068813235f, 0.030049937f, -0.029135097f, 0.011466649f, 0.022076864f, 0.021318898f, 0.054671377f, 0.050053142f, -0.044546027f, -0.010254691f, -0.027049676f, 0.055619366f, -0.026845135f, 0.024239741f, -0.06825224f, -0.065425254f, -0.05900556f, -0.04579793f, 0.0012429468f, 0.00931515f, 0.018265387f, -0.060813367f, 0.033163533f, 0.024275701f, -0.057990305f, -0.06807657f, -0.021074377f, -0.055270042f, -0.009921374f, -0.029082667f, 0.011933515f, 0.046528324f, 0.010317705f, -0.0072143096f, -0.03705339f, -0.059658192f, 0.053404756f, 0.036289018f, -0.029948963f, -0.06677314f, 0.046606615f, -0.064840466f, 0.059100408f, -0.00767817f, -0.03608636f, -0.052038625f, 0.026488177f, -0.021166323f, -0.010547994f, 0.051314726f, 0.014622167f, -0.026263064f, -0.0015230074f, 0.026127445f, 0.0106725255f, -0.034840953f, 0.023761492f, -0.044951305f, 0.0126324445f, -0.03915787f, 0.038468074f, -0.004535489f, -0.022062559f, -0.046947774f, 0.025561223f, -0.077601984f, 0.018119829f, 0.0031424006f, 0.0325907f, 0.007915128f, 0.0035531877f, -0.02656061f, 0.011037138f, 0.032811828f, 0.022215618f, -0.048631493f, -0.001534292f, -0.018847948f, -0.003512791f, 0.016490418f, 0.010163484f, -0.08026821f, -0.07313094f, -0.07825414f, -0.07776594f, -0.036801618f, 0.009808859f, -0.01872617f, 0.042401697f, -0.08389296f, -0.03948168f, 0.02441173f, -0.07640013f, 0.014125014f, -0.062489286f, -0.06993917f, -0.06611385f, -0.037530493f, -0.015380511f, -0.06889228f, 0.00082328817f, 0.0056539434f, -0.0020696996f, -0.019427234f, -0.07917102f, -0.023872122f, 0.0031772417f, 0.021493021f, 0.020582471f, -0.042878702f, 0.018307406f, -0.069180734f, -0.022247905f, 0.029722353f, -0.07166151f, -0.06482315f, -0.027238477f, 0.04189786f, -0.022096055f, 0.008495651f, -0.051289294f, 0.010325418f, -0.08476281f, -0.01128247f, -0.058017354f, 0.0032065208f, -0.013666232f, -0.034358542f, -0.030550191f, -0.016773978f, 0.053464457f, -0.00312883f, -0.053370163f, -0.021976488f, 0.02031983f, -0.052315738f, -0.03819492f, -0.032371778f, -0.03720206f, -0.011242766f, 0.050387215f, 0.018302934f, 0.043606248f, -0.022266483f, 0.0076441537f, -0.081367604f, 0.04316161f, -0.076746285f, -0.024261005f, 0.004454764f, -0.065129355f, 0.044363048f, 0.0005185069f, -0.012904183f, -0.083912045f, -0.027054941f, 0.01742746f, -0.02297269f, -0.037688952f, -0.07750292f, -0.01698061f, -0.07405082f, 0.009685022f, -0.06705197f, -0.04875141f, -0.022278538f, 0.04143705f, -0.031396624f, 0.02243766f, -0.016587028f, -0.029032707f, 0.017303979f, -0.062294774f, -0.061586715f, 0.0017638793f, -0.0728142f, -0.0009363399f, -0.027204648f, -0.0017852064f, -0.013056591f, -0.048466496f, -0.080486335f, -0.0011191315f, -0.06730882f, -0.016998952f, -0.05751097f, -0.06055714f, -0.05114066f, -0.07759244f, 0.0055983774f, 0.006961507f, -0.065971896f, -0.05503517f, -0.007876831f, -0.08325197f, -0.035583314f, -0.012277819f, 0.045034565f, 0.045407988f, 0.021775728f, -0.053776037f, -0.032107312f, -0.02873856f, -0.062153324f, -0.03201933f, -0.033121888f, -0.03170259f, 0.019269997f, -0.018229498f, -0.072940506f, -0.020271862f, -0.073596925f, 0.02305966f, -0.059890896f, 0.044895917f, 0.021874972f, -0.0053137625f, 0.036474615f, 0.033840824f, -0.052455936f, -0.01020991f, -0.021837639f, 0.016739937f, 0.0021120568f, -0.05395137f, -0.016063757f, 0.03770089f, -0.004264073f, -0.01364305f, -0.06306133f, 0.028489485f, -0.06747249f, -0.07544652f, -0.028419204f, -0.021795463f, -0.0014541296f, -0.07760583f, -0.034517467f, -0.02644527f, 0.03471043f, 0.027742118f, -0.06582186f, -0.015005275f, 0.022738848f, -0.076522924f, -0.04401556f, -0.078932285f, 0.017356744f, -0.06273947f, -0.051409833f, -0.05781793f, 0.005888686f, -0.037946798f, -0.07623762f, -0.08476324f, -0.028459214f, -0.017800141f, -0.077221155f, -0.044949923f, 0.04590153f, -0.047808636f, -0.071364306f, 0.013060914f, -0.053587023f, -0.07611793f, 0.011801332f, 0.0044086734f, -0.08423752f, 0.037692554f, -0.08181637f, 0.040124193f, -0.07021037f, -0.030564371f, -0.07072146f, 0.007724782f, -0.06250721f, -0.076080896f, 0.02886849f, -0.046758324f, -0.03580907f, -0.009395242f, 0.04641309f, 0.014882763f, 0.01227559f, -0.077358335f, -0.027620265f, -0.04125153f, -0.0002816119f, 0.00766075f, 0.030867983f, -0.0004802813f, -0.007995031f, 0.042294353f, 0.014914347f, -0.06459492f, 0.02610481f, -0.02482933f, -0.04040043f, 0.0077767544f, -0.04797032f, 0.051223677f, 0.04304296f, 0.048819833f, 0.04175891f, -0.03953088f, -0.037523843f, 0.028000392f, -0.05044152f, 0.039178178f, 0.032975577f, -0.07833553f, -0.020881813f, -0.07138834f, 0.0035606257f, 0.012318325f, -0.017998843f, 0.014511281f, -0.07678212f, -0.02481268f, 0.049032234f, 0.0076001156f, 0.0075465967f, -0.06253326f, 0.048084747f, 0.03575928f, -0.01123988f, 0.025952868f, 0.028833112f, -0.03841309f, -0.017267032f, -0.054548908f, 0.02533342f, 0.034561343f, -0.06343599f, 0.019549323f, 0.02487182f, 0.048257697f, 0.05141924f, 0.03241761f, 0.0119349f, -0.064493954f, 0.015583223f, 0.022289164f, -0.041208077f, 0.047180925f, -0.05243602f, 0.004736165f, 0.002881858f, 0.018344244f, -0.05378133f, -0.07565406f, 0.011313782f, -0.01736874f, -0.008015459f, -0.0038071547f, 0.031881727f, 0.03228007f, 0.05042862f, -0.014705358f, -0.024998164f, 0.034188014f, -0.030336576f, -0.047936827f, -0.059903007f, -0.018509662f, -0.05886757f, -0.013907455f, 0.059557546f, 0.044516817f, -0.033214387f, 0.015655914f, -0.011646087f, -0.019241987f, -0.016752126f, -0.018436318f, -0.016666023f, 0.02448097f, -0.05033593f, -0.0054494315f, 0.008903859f, 0.0183266f, -0.017541653f, 0.03721498f, 0.06058379f, 0.016396128f, 0.017373102f, -0.03315066f, -0.03304108f, -0.05217614f, -0.06711116f, 0.061644148f, 0.025737746f, -0.040985744f, 0.0068490775f, 0.029271686f, -0.026943367f, -0.013294196f, -0.05756482f, -0.0039618583f, -0.043360256f, -0.034486707f, 0.038871344f, -0.056727715f, 0.04134224f, -0.05360395f, 0.037583884f, -0.046730634f, -0.020649768f, -0.055966295f, 0.028290229f, -0.06304375f, -0.07723903f, 0.030185262f, 0.029967964f, -0.059222702f, -0.07364119f, 0.012052063f, 0.051386498f, -0.006325048f, -0.007833957f, -0.0073143076f, -0.010514819f, 0.042885974f, 0.01431716f, 0.023319256f, 0.04079623f, 0.013524088f, -0.04513099f, 0.042294484f, 0.03163317f, 0.0104590645f, -0.008485386f, -0.06442426f, 0.0017318949f, 0.020275384f, 0.01836902f, -0.030031554f, -0.015998486f, -0.04124519f, 0.030320464f, 0.033639498f, 0.030831827f, -0.0075577297f, 0.0066713495f, -0.057771828f, 0.010776769f, -0.003681762f, -0.039818395f, -0.060587395f, -0.06330826f, 0.02356429f, -0.09443546f, -0.052936003f, -0.0047861245f, 0.009274313f, -0.086740814f, -0.040938117f, -0.05153053f, -0.100304924f, -0.08080071f, -0.05076713f, -0.086108536f, -0.037273984f, 0.030513098f, -0.060008097f, -0.05418785f, -0.006617993f, -0.03638818f, -0.06969308f, -0.08330698f, -0.06453879f, 0.02301888f, 0.0014641412f, -0.015423337f, -0.09948637f, 0.013524564f, -0.043515686f, -0.06031154f, -0.034135647f, -0.083886504f, -0.06608689f, -0.06532002f, -0.0010137537f, -0.08113235f, -0.02909178f, -0.01667275f, -0.010102006f, -0.056865934f, -0.06875772f, -0.03570097f, -0.042236652f, -0.044456065f, -0.063465826f, -0.1020662f, 0.017078903f, -0.04110037f, -0.020725047f, 0.0063630473f, 0.011464661f, 0.025206018f, -0.0761753f, -0.02910107f, -0.051907517f, -0.010979947f, -0.09718165f, 0.027005697f, 0.023842026f, -0.04970866f, 0.009954179f, 0.014431512f, -0.05075458f, -0.06381137f, -0.0471729f, -0.10068708f, -0.1042371f, -0.1062489f, -0.006881531f, -0.02650832f, -0.088605724f, -0.023680497f, -0.09215517f, -0.07823832f, -0.08108473f, -0.03458637f, -0.0011431465f, -0.07095065f, -0.017012699f, 0.02587284f, -0.034607727f, -0.024827171f, -0.10236678f, -0.014057838f, -0.10488518f, -0.08872783f, 0.021833325f, 0.000638336f, -0.09159464f, -0.078974746f, -0.0054822676f, 0.016925871f, -0.00020050858f, -0.063472934f, -0.028653609f, -0.0026783226f, 0.026482686f, 0.056270223f, 0.03190972f, -0.00061814685f, -0.041103113f, 0.007268869f, 0.045490194f, -0.029427573f, -0.006302283f, 0.0137446495f, -0.075537f, -0.048484515f, -0.01476411f, 0.011641063f, -0.023842216f, 0.011358934f, 0.018969089f, 0.029427674f, 0.009182235f, 0.040146835f, -0.017552774f, 0.030616084f, 0.049434565f, 0.010347073f, -0.0060487483f, 0.0038227213f, 0.003428631f, -0.011362565f, 0.038976658f, 0.007818362f, -0.049457744f, -0.089956485f, 0.036106233f, 0.015035458f, -0.06083822f, -0.0048947963f, 0.02391423f, -0.01873145f, -0.07662384f, 0.009572868f, 0.027147708f, -0.033135623f, -0.009502607f, 0.033411916f, -0.056034204f, -0.07129708f, -0.03156018f, -0.022307577f, -0.093021594f, -0.08960861f, -0.0826067f, 0.027532244f, -0.06604018f, 0.022434296f, -0.07173749f, -0.048927728f, -0.0003783357f, 0.005417355f, -0.03116941f, -0.08226783f, -0.088453114f, -0.031162232f, -0.049474485f, 0.01724369f, 0.014697917f, -0.072203994f, -0.0025767225f, -0.020034725f, -0.05238517f, -0.03293869f, -0.03238473f, 0.01315752f, -0.0736956f, -0.08601136f, -0.07239852f, -0.03804653f, -0.019078096f, -0.061980993f, 0.009326997f, -0.053579014f, -0.020423537f, -0.0005889968f, -0.06888003f, 0.0016869005f, 0.021769837f, -0.0134375375f, -0.10156827f, -0.06712433f, -0.10178273f, -0.010127848f, -0.016972914f, 0.0063794013f, -0.032383207f, -0.043874647f, -0.07712578f, -0.059306934f, -0.04732947f, 0.018301686f, 0.023726592f, -0.010234897f, -0.060159836f, -0.005498389f, -0.0150504885f, 0.027601315f, -0.05936819f, -0.0874332f, -0.027942128f, 0.0042024176f, -0.07238914f, -0.024639409f, 0.0046559693f, 0.027907914f, 0.00015321447f, -0.05975175f, -0.051467977f, -0.023554742f, 0.035576418f, -0.08434931f, -0.0020255654f, 0.0026468232f, -0.0036757397f, 0.039779007f, -0.046814043f, -0.028525298f, -0.073638216f, 0.0348504f, -0.043241825f, -0.003977351f, -0.060510535f, -0.038256526f, -0.012586057f, -0.047284536f, 0.006542383f, 0.028628403f, -0.08831336f, -0.07277451f, -0.08595168f, 0.013358485f, -0.014239988f, 0.01699255f, 0.03825473f, -0.055884268f, -0.06240192f, -0.00011591452f, -0.073466875f, -0.029032636f, -0.071471296f, -0.051740415f, 0.007290173f, -0.062085636f, -0.021836633f, -0.018863935f, -0.08858606f, 0.021374663f, -0.068380214f, -0.07576092f, -0.073116004f, -0.09632549f, 0.0124638f, -0.07617278f, -0.04339257f, 0.02420722f, -0.096014865f, 0.012015735f, -0.09226108f, -1.2947019e-05f, -0.075472444f, 0.005445103f, -0.06728386f, 0.025400985f, -0.06775515f, -0.030538853f, 0.0066493712f, -0.04575423f, 0.025607394f, -0.026176233f, -0.094942205f, -0.09497797f, -0.015228218f, 0.028309502f, 0.0069670314f, -0.0039885086f, -0.051784538f, -0.020282274f, -0.055725086f, 0.015334668f, -0.05632178f, -0.089679696f, -0.023006663f, -0.05583551f, 0.011300683f, -0.093373135f, -0.03480317f, -0.09605374f, -0.028983638f, 0.01970086f, -0.09021151f, -0.00481227f, 0.014958422f, -0.035283923f, 0.023678109f, 0.02048075f, 0.020592969f, 0.012699808f, -0.039169326f, -0.043740112f, 0.015357602f, 0.0019724858f, -0.034576327f, 0.027562616f, -0.08173855f, -0.03136227f, -0.03773032f, -0.0043651215f, -0.033103995f, -0.083547406f, -0.022670211f, -0.09214635f, -0.078542925f, -0.034066223f, 0.012665914f, -0.036233418f, 0.007833335f, -0.0001297256f, -0.062428758f, -0.097628355f, -0.03882592f, -0.07227981f, -0.09642747f, -0.047227103f, -0.011662808f, -0.0026458588f, -0.033260968f, -0.03400834f, -0.06309597f, -0.09616485f, -0.06671005f, 0.055920452f, -0.042309616f, 0.0041286894f, 0.05975301f, 0.037116494f, -0.022793267f, 0.027375294f, -0.0103202f, -0.0068565686f, 0.022360649f, 0.03551823f, -0.024623174f, -0.05443558f, 0.0462029f, -0.043424156f, -0.001116358f, -0.016835595f, -0.013306516f, -0.06676039f, -0.002691812f, 0.024519457f, 0.022098146f, -0.06997113f, -0.0123060215f, 0.03746545f, -0.03419247f, 0.013053033f, -0.05351394f, 0.053195376f, 0.052438017f, 0.016831033f, -0.045865063f, -0.045329213f, 0.060093474f, -0.032558125f, -0.0074898466f, 0.022595877f, 0.013312908f, -0.010959335f, -0.0013316399f, -0.04075434f, 0.034309078f, -0.019216528f, 0.008030566f, -0.06614169f, 0.048065167f, -0.023308799f, -0.02322341f, 0.008831195f, -0.06464325f, -0.027344575f, 0.028983185f, -0.0036925785f, -0.038310774f, -0.051214695f, -0.03669635f, -0.0072768624f, -0.012903969f, -0.009117677f, -0.06638044f, 0.040451963f, 0.059584465f, 0.04052694f, -0.023432683f, -0.043720927f, 0.009301236f, -0.02477567f, -0.025489634f, -0.024871051f, 0.0038265833f, -0.06798763f, 0.015591741f, 0.03640084f, 0.043956503f, -0.002994854f, 0.057354096f, -0.050590113f, -0.031170899f, 0.03367517f, -0.008236945f, -0.06884058f, -0.03660736f, 0.029332558f, -0.047946107f, -0.0036042416f, 0.034382664f, -0.049754538f, -0.044557158f, -0.0052507585f, -0.04702775f, -0.06264917f, -0.045545064f, 0.03241003f, -0.044883993f, 0.045029897f, 0.018446967f, -0.041236553f, 0.037864845f, 0.019493503f, 0.049924683f, 0.020622304f, 0.037055098f, 0.01313849f, -0.0514996f, -0.058457166f, 0.013050386f, 0.0061438377f, 0.020782791f, 0.055956632f, -0.06549765f, 0.006736585f, 0.017607208f, 0.04878738f, -0.05449766f, -0.011191101f, 0.009163375f, 0.017518662f, -0.07248428f, -0.027789775f, 0.02151582f, 0.005190356f, -0.013224661f, -0.014202385f, -0.010513142f, 0.042326987f, -0.013082442f, -0.06613211f, -0.044328418f, -0.07110975f, 0.040555034f, 0.036746196f, -0.04638848f, -0.039974153f, -0.053070657f, -0.058076102f, -0.013137518f, -0.05059801f, 0.026708748f, 0.0068818205f, -0.06201965f, 0.021144755f, 0.018036854f, 0.055304553f, -0.021352122f, 0.03186517f, -0.05814076f, -0.06835097f, -0.023731109f, 0.0011225521f, -0.038580585f, -0.004494005f, 0.03804648f, 0.027037548f, 0.057337865f, -0.019391486f, -0.07029206f, -0.06454353f, -0.041005876f, -0.058953606f, -0.03930411f, -0.070728675f, -0.015326561f, -0.056257688f, 0.04568114f, -0.005723884f, 0.020034738f, -0.049552884f, 0.007108978f, -0.0055064126f, -0.0049781473f, -0.04050841f, -0.051190853f, 0.031728573f, 0.03847846f, 0.03815218f, 0.042059388f, 0.044079587f, -0.006107324f, -0.025217667f, 0.011418456f, 0.048110705f, 0.022275303f, -0.05128211f, 0.0312068f, 0.031504754f, -0.04117993f, 0.059244007f, 0.023147723f, -0.026528446f, 0.00013034389f, -0.0653192f, 0.05676781f, -0.015024426f, -0.06724798f, 0.012527273f, 0.038946588f, 0.01689532f, -0.04945464f, -0.0089404555f, -0.03496082f, -0.022403944f, 0.022506168f, -0.04561614f, 0.0046073166f, 0.058612056f, -0.0142112775f, 0.030284649f, 0.031039417f, 0.019629037f, 0.017668368f, -0.030570395f, 0.016283572f, 0.046312965f, 0.019801991f, -0.023047144f, -0.007677156f, -0.053874116f, -0.028353905f, -0.046214793f, 0.015607f, -0.033563655f, -0.021355567f, 0.04037708f, 0.021357821f, -0.06535724f, 0.04359885f, 0.035380088f, 0.028701412f, 0.021477493f, 0.002510555f, -0.02461682f, -0.048392814f, 0.029543106f, -0.00060021994f, -0.07188375f, 0.0069362074f, 0.015711375f, 0.031480413f, -0.0057116197f, -0.03017453f, -0.024068221f, -0.012915162f, -0.024161488f, -0.018232977f, -0.0069251973f, 0.042892896f, -0.023511074f, -0.052125197f, -0.030441435f, -0.018578215f, -0.008580501f, -0.0664863f, 0.023604885f, -0.038635843f, -0.045186043f, -0.07051278f, -0.067482226f, -0.0041227494f, -0.06367211f, -0.03377571f, -0.008512492f, -0.061694365f, -0.06381957f, -0.036932163f, -0.044029303f, -0.007528399f, -0.007258443f, -0.031740207f, -0.06879744f, 0.021157065f, 0.00047064578f, 0.04971693f, -0.05155899f, 0.040547915f, 0.04192483f, 0.053536136f, 0.054822665f, -0.003172984f, 0.004892461f, 0.051281705f, -0.031385187f, 0.04311706f, -0.026801229f, 0.040051553f, -0.04942649f, -0.016316483f, -0.04081987f, 0.023016512f, -0.04489909f, -0.0055386755f, -0.039328847f, -0.031872537f, -0.073786736f, -0.039741028f, 0.019439701f, 0.032220904f, 0.026434077f, 0.04845831f, -0.061480463f, -0.025787616f, -0.045081068f, -0.045557283f, -0.04834828f, -0.04370984f, 0.057905078f, 0.026639046f, 0.041859645f, -0.07104483f, -0.036112778f, 0.047767323f, -0.047006514f, 0.0026829562f, -0.016365286f, -0.03573294f, -0.07258308f, -0.027997144f, -0.028722405f, 0.049691673f, -0.06925429f, 0.00779644f, 0.019119248f, -0.00668553f, 0.053536832f, 0.031397607f, 0.044384375f, -0.051500108f, 0.035844952f, -0.033774607f, -0.027326882f, 0.059730977f, -0.04798219f, -0.072194524f, -0.021858647f, 0.047600903f, 0.04595365f, 0.036406163f, -0.0070185317f, 0.041526884f, 0.007702971f, -0.003506953f, 0.030967044f, -0.0051574674f, -0.027437322f, -0.04088407f, 0.039790135f, 0.018450052f, 0.02186768f, 0.0020956374f, -0.0353942f, -0.005039807f, 0.0403276f, -0.057731867f, 0.003413261f, 0.018170476f, -0.07220634f, -0.073189154f, 0.056464605f, -0.055698656f, 0.032167997f, -0.048152037f, 0.03409046f, -0.04941614f, 0.035901077f, -0.020107146f, -0.00017206938f, 0.036490157f, -0.015665213f, -0.024572698f, -0.066980496f, -0.048693605f, 0.048517548f, -0.06868472f, 0.00024982623f, 0.034668643f, 0.0013839321f, 0.048917122f, -0.07085122f, -0.068765916f, 0.058908343f, 0.038955446f, 0.01465489f, -0.0666377f, -0.047787663f, -0.033215135f, -0.048449628f, 0.054157976f, -0.056627788f, 0.02473374f, 0.012186942f, 0.039630778f, -0.05084719f, -0.031455148f, -0.025414357f, 0.021636853f, -0.015794698f, -0.061843257f, 0.012213222f, -0.038876295f, 0.018620044f, 0.02819935f, -0.06560506f, -0.037759803f, -0.01415012f, 0.034284163f, -0.059135005f, 0.02553318f, -0.024249213f, -0.029274203f, 0.005073494f, 0.027282424f, -0.04207926f, -0.027347863f, 0.028604776f, 0.036788996f, -0.031410832f, 0.038461234f, -0.02040517f, -0.02636315f, 0.040080737f, -0.03919069f, -0.07375297f, 0.023014598f, -0.007887162f, 0.023037106f, 0.043908976f, -0.011238951f, -0.04011412f, 0.026008803f, 0.051067214f, 0.052056924f, 0.0475744f, -0.06765304f, 0.044097997f, -0.03941387f, -0.0484597f, -0.045493726f, -0.0040320293f, 0.06082172f, -0.0039786124f, 0.043469116f, -0.06576468f, -0.03972948f, -0.051254056f, 0.041699365f, 0.020341098f, 0.009742748f, -0.0061315745f, 0.037824884f, -0.04048642f, 0.04686612f, 0.008134138f, -0.03203676f, -0.00064591586f, -0.04275148f, -0.006323346f, -0.023866924f, -0.021057805f, 0.025628202f, -0.05280056f, 0.03592774f, -0.0390557f, 0.027857041f, 0.043364f, 0.010737121f, -0.0006155092f, 0.0062384964f, 0.03278703f, 0.042231284f, -0.06470079f, 0.055626255f, -0.04601738f, -0.040593915f, -0.0018484019f, -0.045626f, 0.04423166f, 0.058674835f, 0.016200384f, 0.010104327f, 0.0445865f, 0.0052761976f, -0.06783834f, 0.03073948f, 0.026022932f, 0.025499653f, -0.04019686f, 0.028924672f, -0.01051776f, -0.033673815f, -0.06675247f, 0.03309469f, 0.024517043f, -0.0030385638f, 0.05179179f, 0.013803271f, -0.06926651f, -0.00636024f, -0.014299619f, -0.013715539f, 0.02319145f, -0.066994496f, 0.025269948f, 0.021283563f, 0.0006233471f, -0.008223359f, -0.043058433f, 0.020480527f, 0.03736058f, -0.012951783f, -0.04850061f, -0.050813355f, -0.034918137f, -0.008264343f, 0.0056953263f, -0.046173885f, -0.0011508843f, 0.006187247f, 0.016936893f, -0.036425147f, 0.0500449f, -0.02454718f, 0.037962712f, 0.06021402f, 0.03968666f, 0.043098323f, -0.04514555f, 0.050007816f, -0.0698028f, 0.035490796f, -0.06803931f, 0.021564983f, 0.014474646f, 0.011940313f, -0.015868252f, 0.041645657f, -0.02998202f, -0.031316854f, 0.039553646f, -0.06664268f, 0.032897558f, 0.036361314f, -0.056692876f, -0.0071912883f, 0.0057516648f, -0.052847914f, -0.012289529f, 0.03198291f, 0.009599431f, 0.005111218f, -0.01371684f, -0.006469349f, -0.012072862f, 0.04805358f, -0.01255842f, -0.01754162f, 0.027644133f, -0.061264873f, -0.0066898614f, -0.024622453f, -0.012043294f, 0.044764116f, -0.056223422f, -0.020408096f, -0.037937112f, -0.021030134f, -0.030503029f, -0.056831483f, -0.065437734f, 0.04773293f, -0.020468837f, -0.050021473f, -0.05859761f, -0.04693858f, 0.0095760245f, 0.019077748f, -0.041128036f, 0.05791972f, 0.021798655f, 0.050295077f, -0.0667069f, 0.014892429f, 0.017399846f, -0.003756407f, -0.0147897f, 0.008669175f, -0.013760907f, 0.046155967f, -0.037403915f, -0.010194778f, -0.020032324f, 0.01218351f, 0.018716149f, 0.046168186f, -0.02430421f, -0.052820362f, -0.061270107f, -0.044543784f, 0.012606675f, 0.00091515866f, -0.013416437f, 0.053482413f, -0.04574262f, 0.035341166f, 0.042846017f, -0.023090843f, 0.02242991f, 0.025615353f, 0.030567523f, -0.00559863f, 0.01375269f, 0.039591f, 0.043442085f, 0.017725717f, -0.032165352f, -0.059517276f, 0.04753924f, -0.014489259f, 0.055238236f, 0.042218316f, 0.05787668f, 0.0040202215f, -0.05715443f, 0.043041386f, 0.017077895f, 0.04318163f, 0.037185792f, 0.038268663f, 0.021453664f, 0.04919205f, -0.051990625f, -0.0608615f, -0.0010175869f, 0.049112443f, 0.008639814f, 0.036873028f, -0.048470534f, 0.03244037f, -0.049461454f, -0.06673561f, 0.049592976f, 0.018465906f, 0.034408584f, -0.021289052f, 0.0013841721f, -0.014057925f, -0.0028637156f, -0.028242147f, -0.06104312f, -0.015275519f, -0.043038547f, -0.024632927f, -0.03482374f, 0.044518486f, -0.057072766f, -0.06767195f, 0.031823877f, -0.01924831f, 0.048089586f, -0.039690893f, -0.008397835f, -0.03687057f, -0.0056147114f, -0.020109773f, 0.040574856f, 0.008866352f, 0.05296591f, 0.03879088f, 0.04890817f, 0.017842079f, 0.033164777f, 0.032712292f, -0.0066454583f, 0.030613383f, -0.05916082f, 0.010612533f, -0.050599225f, 0.05712355f, -0.045721587f, -0.021440754f, -0.059524685f, -0.012755176f, 0.011892191f, 0.0107598305f, 0.023551561f, 0.0018269445f, -0.02968158f, -0.008842371f, -0.058594152f, 0.034864344f, -0.0693168f, 0.0010478592f, -0.059727274f, -0.041707627f, 0.02444502f, 0.03383398f, -0.010593633f, -0.04820474f, -0.0041046347f, -0.019698152f, -0.059841294f, 0.029149367f, -0.032692887f, -0.019666322f, 0.052723266f, 0.013731233f, 0.040883515f, 0.0033248405f, -0.062096585f, -0.028627986f, -0.045143213f, -0.06666575f, -0.05998869f, -0.068876386f, -0.06472645f, -0.029623102f, -0.0033115284f, -0.06648756f, 0.038579136f, 0.019674806f, 0.021489138f, -0.052610036f, 0.008396095f, -0.041255776f, 0.037009217f, -0.030856146f, -0.018767664f, -0.047408704f};

float conv1_bias[] = {0.028121293f, 0.00030437307f, -0.0027549614f, -0.0055056405f, -0.008331278f, 0.038758967f, -0.003874696f, -0.006362003f};

float conv2_weight[] = {-0.043792058f, -0.027304698f, -0.05145932f, 0.01796438f, -0.020462744f, -0.015183556f, 0.014075059f, 0.03366047f, -0.029336512f, 0.009624854f, -0.05626917f, 0.004584649f, -0.04577225f, 0.027358918f, 0.012855087f, 0.020981159f, 0.040094953f, -0.0027280978f, -0.0030679244f, 0.0042256042f, -0.0010530169f, 0.017523792f, 0.03454292f, -0.045556076f, -0.05881223f, -0.0008368212f, 0.018385742f, 0.030904384f, 0.005598874f, -0.018154234f, 0.009965471f, 0.014452842f, -0.0106382575f, -0.0258041f, 0.02226199f, -0.04393271f, 0.03410736f, 1.0657967e-05f, -0.05798394f, 0.010169036f, -0.015133214f, -0.011810708f, -0.04403891f, -0.06069614f, 0.036590718f, -0.015014163f, 0.022414783f, -0.02157094f, -0.04725845f, -0.02368476f, 0.011962977f, -0.008179721f, -0.012259026f, 0.007370125f, -0.03946698f, 0.038622603f, 0.020821352f, 0.01890691f, 0.008357003f, 0.024999473f, 0.01533888f, 0.03576571f, -0.041390825f, 0.02339193f, -0.042558406f, -0.049635183f, -0.01419989f, 0.04700814f, 0.032677557f, -0.004337056f, -0.021159433f, -0.022751937f, -0.03187968f, -0.017967083f, -0.040123876f, 0.0021225365f, -0.01037513f, 0.009091307f, -0.056655824f, -0.06039405f, -0.05540223f, 0.0087978635f, -0.02404727f, -0.022318821f, -0.018607968f, -0.03181086f, -0.006427041f, -0.02124345f, -0.029770138f, -0.031541605f, -0.032268256f, 0.013527807f, -0.045243498f, -0.013624577f, 0.045547638f, -0.018071879f, 0.0020944455f, -0.041401997f, -0.0025544805f, 0.016183687f, 0.012185014f, -0.053881433f, -0.046420995f, -0.0006430662f, 0.0034640937f, 0.007304318f, 0.03132572f, 0.01030438f, -0.05768768f, -0.054275144f, 0.04894442f, 0.019281948f, 0.003410009f, -0.03999348f, -0.035141643f, -0.04496233f, -0.048486203f, 0.024628084f, -0.023690825f, 0.031692766f, -0.030845378f, 0.020864384f, 0.011983849f, 0.02674816f, -0.0542637f, 0.0022018126f, 0.006902386f, -0.040642403f, -0.01955275f, -0.01992349f, -0.03108542f, -0.014966683f, 0.00907625f, -0.0034502062f, 0.034611184f, -0.00961936f, 0.04599501f, 0.03823264f, -0.054948844f, -0.04910956f, 0.004380499f, -0.032112848f, -0.055789612f, 0.03034007f, -0.027858593f, -0.0035692547f, -0.0259081f, 0.01416656f, -0.018502837f, 0.0403349f, 0.0064171082f, -0.01784812f, -0.02755101f, 0.022456251f, -0.043581877f, -0.022430906f, 0.047594164f, 0.01265833f, 0.002984465f, -0.024521044f, 0.0089904275f, 0.048869435f, -0.02918535f, 0.022442741f, -0.030091373f, -0.01823085f, 0.046671625f, -0.008329545f, -0.055072647f, 0.024042994f, -0.028267985f, 0.0100782495f, -0.026027199f, -0.057816442f, -0.025598705f, -0.010292661f, 0.010602767f, -0.043576192f, -0.036929503f, 0.018786492f, 0.04891066f, -0.055453442f, -0.043145794f, 0.044267874f, 0.0074923453f, -0.007064468f, -0.055835348f, -0.051740393f, 0.034126863f, 0.0044201612f, -0.038636904f, -0.01888038f, 0.04030196f, 0.014889035f, -0.037142117f, -0.020217305f, 0.037727576f, -0.024531089f, -0.059259437f, 0.0003083365f, 0.040106665f, 0.019822882f, -0.032833356f, 0.0044956664f, 0.038875554f, -0.04864781f, -0.052563082f, 0.040012065f, 0.020717962f, -0.06005428f, 0.044160675f, 0.036330845f, -0.021960998f, 0.005525016f, -0.006648f, 0.04039663f, -0.027422145f, -0.0493045f, 0.029019883f, -0.01467676f, 0.030819047f, -0.004183088f, 0.023259291f, 0.025535716f, -0.008589626f, -0.04912625f, 0.034027055f, -8.475209e-05f, 0.030945132f, -0.05170223f, -0.055029947f, 0.015801715f, 0.03537452f, -0.036851406f, 0.03190667f, 0.03476077f, -0.03728327f, -0.021660158f, 0.01992329f, -0.05026532f, -0.04269571f, 0.019832116f, -0.017718734f, 0.038108494f, 0.033149302f, 0.04051921f, 0.029818252f, -0.0062732226f, 0.0030729738f, 0.004518644f, -0.010568573f, -0.027763318f, 0.0046303105f, -0.055448536f, 0.0151175475f, 0.054932773f, -0.0011698557f, -0.002427308f, 0.059281863f, 0.031668477f, -0.030204285f, -0.009739831f, -0.048409477f, -0.018179568f, 0.0009820508f, -0.03421048f, -0.0050382647f, 0.031059278f, -0.0093576f, -0.058236208f, 0.009462091f, -0.02104175f, 0.060505804f, 0.048636876f, -0.049110427f, 0.033320874f, 0.039248798f, -0.022494804f, 0.016656755f, 0.042042796f, -0.04006452f, -0.03659849f, 0.042736556f, -0.04943231f, 0.038991988f, -0.03152357f, 0.05853697f, 0.037445776f, -0.00040892465f, -0.015336388f, 0.0072791744f, -0.042992562f, -0.029539151f, -0.0028852667f, 0.049589552f, 0.012391401f, -0.028720474f, -0.0050676456f, 0.016142623f, 0.0016810963f, -0.04291423f, 0.052302912f, -0.011019913f, -0.03369351f, 0.04666502f, -0.03408015f, -0.033141173f, 0.02318524f, -0.022423381f, -0.006294504f, 0.057310775f, -0.045282237f, 0.02515437f, 0.026581341f, 0.040631413f, 0.0010857548f, -0.047192723f, -0.011137051f, 0.01734084f, 0.045831278f, -0.022419367f, -0.0009709194f, -0.038458634f, 0.01725336f, 0.036819644f, 0.019602748f, -0.028024755f, -0.0722174f, 0.02815378f, 0.02240173f, -0.00095874944f, -0.05743003f, -0.007366139f, -0.0053165806f, -0.023993263f, -0.035284996f, -0.07320217f, -0.049707912f, -0.03852588f, -0.0559818f, 0.037260167f, 0.0042509995f, 0.034258958f, 0.011369878f, -0.067588106f, 0.01873983f, -0.01684512f, -0.041989796f, -0.010944891f, -0.011917624f, -0.060291644f, -0.00018860456f, -0.06802937f, 0.020720081f, -0.0681533f, -0.029941106f, 0.03391197f, 0.0020982658f, -0.026498958f, 0.010843208f, -0.052165676f, 0.037551943f, 0.028060047f, -0.015869668f, -0.052295923f, 0.025421876f, -0.02355981f, 0.00065023295f, -0.011811234f, -0.007706205f, 0.001083583f, -0.06627499f, -0.056983255f, -0.042087633f, -0.07193646f, 0.0056414325f, 0.024886563f, -0.066388994f, 0.0008178713f, 0.0029210574f, 0.001844633f, -0.030577993f, 0.016423186f, -0.059035376f, -0.035306863f, 0.03594347f, -0.043572046f, -0.017246557f, -0.012887829f, -0.073209874f, -0.0079302685f, -0.006299246f, -0.019682206f, -0.04334278f, -0.07364614f, -0.024794897f, 0.0017456379f, -0.046948604f, -0.021546286f, -0.059238244f, -0.02882716f, -0.072367385f, 0.027021851f, -0.05289957f, -0.034316797f, -0.0028544012f, 0.047658168f, 0.043202955f, -0.06645898f, -0.00586094f, -0.016581507f, 0.035789143f, 0.035988074f, -0.060000475f, 0.041109547f, -0.021976607f, -0.02215533f, 0.027986523f, 0.03739913f, 0.0038130933f, 0.017069692f, -0.031556487f, -0.049641937f, 0.022421813f, -0.02388192f, -0.048173763f, 0.0024053897f, -0.037106305f, -0.048932705f, 0.036944993f, -0.021926934f, 0.014713013f, 0.018773666f, 0.0097327f, 0.018759057f, 0.023300702f, 0.018432446f, -0.06321688f, -0.04842356f, -0.025369775f, -0.0015661583f, -0.026142929f, 0.033911098f, 0.029882578f, 0.015315672f, 0.001926639f, -0.047285702f, 0.0076831486f, -0.022916205f, 0.013543597f, -0.03904913f, 0.02317918f, 0.009731351f, -0.038412802f, -0.046006642f, -0.06361581f, 0.027592706f, 0.027227374f, 0.007920416f, 0.01317848f, -0.0030239879f, 0.035541266f, -0.0069030686f, -0.0382109f, -0.009403717f, -0.04318053f, -0.03138747f, 0.020996338f, 0.0055180793f, -0.040149644f, -0.07075229f, 0.021479629f, -0.018907325f, -0.0398756f, 0.036916777f, 0.018296057f, -0.05796262f, 0.04117399f, 0.028554838f, -0.02032281f, 0.029045137f, -0.03491913f, 0.023751533f, 0.01439828f, -0.05740858f, -0.05357367f, -0.047503386f, -0.022534778f, -0.03972861f, -0.018759627f, 0.035647497f, 0.0025004765f, 0.022601249f, -0.023973046f, -0.026582869f, -0.060783032f, 0.035764087f, 0.046161678f, -0.019912945f, -0.039164063f, 0.06114835f, 0.050043255f, -0.007870957f, -0.0112766195f, 0.03447066f, -0.032687116f, 0.027971221f, 0.046145633f, 0.028419033f, -0.03380016f, 0.011037542f, 0.048819173f, -0.032839052f, 0.012706803f, 0.008817559f, 0.026798304f, -0.0143904975f, -0.0078516f, 0.023177804f, 0.018985854f, -0.011016902f, -0.036022075f, 0.046594184f, 0.008037824f, 0.01527621f, 0.009864647f, -0.017113332f, 0.039266426f, -0.049135514f, -0.056485754f, 0.046902843f, 0.047119647f, 0.040003177f, -0.018909508f, -0.055277288f, 0.04954231f, 0.014821221f, -0.048381805f, 0.040076356f, -0.012682694f, -0.05486555f, -0.036155045f, 0.02675359f, -0.026126457f, -0.034222025f, 0.026778389f, -0.038013782f, 0.017054835f, 0.0236475f, -0.034229673f, 0.004025804f, -0.03491229f, 0.041721076f, -0.007931303f, 0.011384588f, -0.031893115f, -0.041158553f, 0.01794261f, -0.008988125f, -0.026390908f, -0.0032395765f, 0.033555117f, -0.060247425f, 0.002020916f, 0.03119365f, -0.00062416843f, -0.045015294f, 0.026465982f, -0.038180836f, -0.007807673f, 0.028229201f, 0.009927286f, -0.041594714f, -0.033839107f, -0.045194007f, 0.016987348f, -0.03874565f, 0.006289486f, 0.011628885f, -0.00657548f, 0.012970961f, 0.028189233f, -0.011337065f, -0.037408363f, -0.031094464f, -0.026625618f, 0.02661393f, 0.010144722f, -0.010543266f, -0.019518321f, -0.03201105f, 0.003908371f, 0.02472112f, -0.058765754f, -0.049643632f, 0.000551936f, -0.01684833f, -0.022934927f, 0.0098873535f, -0.0465192f, -0.042394698f, -0.0039683757f, 0.010072541f, -0.021607127f, -0.032674883f, 0.046540987f, -0.029517012f, 0.03216474f, -0.0215557f, 0.03555811f, 0.0019077382f, -0.012402332f, -0.043884035f, -0.025807047f, -0.05404749f, -0.056227192f, -0.0439484f, 0.01837759f, -0.028870607f, -0.00854576f, 0.011128655f, 0.022702878f, -0.027592007f, 0.0038609782f, -0.007635357f, -0.046952907f, -0.0027447087f, 0.002433258f, -0.038224507f, 0.026169298f, -0.011805669f, -0.036218654f, -0.008611628f, 0.0015500027f, 0.04800095f, -0.017110318f, 0.010102428f, 0.045409773f, 0.046231594f, -0.03569535f, -0.016626595f, 0.030752184f, 0.047781933f, -0.06135071f, 0.0012723403f, 0.039644003f, 0.044635937f, 0.027648833f, -0.05925674f, -0.009636835f, -0.039967112f, 0.003201659f, 0.016266363f, 0.039025508f, -0.054867525f, -0.033358403f, -0.032233585f, 0.024230294f, 0.02691023f, -0.0058364407f, -0.014370886f, -0.043308426f, -0.055511583f, 0.04450257f, -0.022162652f, -0.01513018f, -0.049961306f, -0.04223469f, -0.034904234f, 0.04269249f, -0.020739328f, 0.027530849f, 0.008285332f, -0.033118043f, -0.0126247965f, 0.02204528f, -0.032154568f, 0.004448879f, -0.012112947f, 0.036929104f, 0.047521453f, -0.000121199744f, -0.05502241f, 0.0075638224f, -0.04445903f, -0.018762583f, -0.052819844f, 0.0026738644f, -0.04378794f, -0.009687125f, -0.057362452f, -0.045491297f, 0.00857849f, -0.05783486f, 0.04193058f, 0.015973926f, 0.044279266f, -0.03169496f, -0.037163686f, -0.0059723402f, -0.025122248f, 0.007387224f, -0.05853849f, -0.056073874f, -0.026873194f, -0.009402805f, 0.027028402f, 0.040666096f, -0.046546385f, -0.04852236f, 0.021012083f, -0.025096612f, -0.046494912f, 0.013745458f, -0.05295159f, 0.048056982f, -0.015214128f, -0.010213638f, 0.0249348f, 0.023565084f, 0.016664894f, -0.0054730917f, 0.04375191f, 0.030517828f, -0.056059502f, -0.037328374f, 0.040592656f, 0.04509037f, 0.02830052f, -0.050853103f, 0.022679409f, -0.08412408f, -0.011260583f, 0.00047681283f, 0.009279184f, 0.016876012f, -0.012289686f, 0.010746024f, -0.062022224f, 0.018225538f, -0.04782098f, 0.012167231f, 0.022589851f, -0.07249034f, -0.07428455f, 0.0020805849f, -0.037376218f, -0.017883494f, 0.0040234127f, -0.026800137f, -0.055151142f, 0.010408309f, -0.08020014f, -0.002218322f, -0.04236969f, -0.0768348f, -0.08219268f, -0.06530392f, -0.058669806f, -0.07342662f, -0.027851429f, 0.016879344f, -0.048782665f, -0.078726046f, 0.016189445f, -0.028991254f, -0.083178915f, 0.0029037297f, -0.00037432677f, -0.0066127367f, -0.048642054f, 0.007675808f, -0.03936143f, -0.021603934f, -0.050185416f, 0.006755992f, -0.02898559f, -0.04625365f, -0.021873364f, 0.012831424f, 0.017457902f, -0.024330461f, 0.01894773f, -0.041443434f, -0.0399605f, 0.0055343015f, 0.016617449f, -0.004983663f, -0.03933863f, -0.014919284f, 0.021607615f, 0.012249162f, -0.044022646f, -0.08410625f, -0.0046706637f, -0.072484635f, 0.023710515f, -0.03252417f, -0.057597905f, 0.018713435f, 0.0070982976f, -0.04160391f, -0.040127352f, -0.036973465f, -0.07006304f, 0.02075811f, -0.015306346f, -0.07946576f, -0.0014875339f, -0.056750733f, -0.056748644f, -0.053506713f, 0.047475334f, 0.040046915f, -0.0052955453f, 0.01921749f, 0.040178705f, 0.04710906f, -0.046885576f, -0.0029462972f, -0.0034445946f, -0.031139044f, -0.052386858f, 0.035790607f, -0.037601653f, -0.021611558f, 0.013507813f, 0.049383067f, -0.025515754f, 0.021346645f, -0.035249703f, 0.0016174525f, -0.019422792f, -0.029070431f, -0.054995835f, 0.020888092f, -0.028748706f, 0.028767215f, 0.018103432f, 0.05100583f, -0.0475432f, 0.04371539f, 0.04793633f, -0.014336354f, -0.031382613f, 0.035770297f, -0.003327066f, -0.0575447f, -0.014013832f, -0.0025967197f, 0.027290784f, -0.024963792f, -0.022851992f, 0.034515157f, -0.0554051f, -0.03437434f, -0.037430584f, -0.052324004f, -0.0002937516f, -0.027388526f, 0.035511862f, -0.0078464635f, -0.039900918f, -0.049290687f, 0.037916895f, -0.0064334827f, -0.03249989f, -0.046415832f, -0.040847212f, -0.0575452f, -0.050480485f, -0.015395273f, -0.030458853f, 0.027810972f, -0.015523468f, -0.050285775f, -0.015549301f, 0.032487042f, -0.019524394f, 0.044452943f, -0.04344353f, -0.051893234f, 0.004449414f, -0.012212869f, 0.03180889f, -0.05465638f, 0.05005748f, 0.0010404706f, 0.04728636f, 0.034013096f, -0.030548614f, -0.0146025615f, 0.030590286f, 0.011005148f, 0.04021102f, -0.038376022f, -0.0424985f, -0.03781839f, 0.043427527f, -0.025628474f, 0.03401245f, 0.0034933197f, 0.048644196f, 0.036484968f, -0.031279605f, -0.048664704f, 0.016412042f, 0.020953545f, 0.012807862f, 0.035671666f, -0.047738228f, -0.0022278272f, -0.016763462f, 0.002240425f, 0.038298137f, -0.034403056f, -0.011326569f, -0.03706724f, 0.033616245f, -0.045801956f, 0.013230818f, 0.0351762f, -0.048392847f, -0.039663386f, 0.029437125f, 0.042389195f, 0.014276309f, -0.023638751f, 0.0046424926f, 0.003434202f, -0.024290355f, -0.037434805f, 0.032172047f, -0.04196777f, 0.01531237f, -0.012497609f, 0.030829016f, 0.043326274f, -0.053263977f, -0.011149166f, -0.03424392f, 0.0068514794f, -0.007947427f, 0.042282354f, 0.017331405f, -0.01203733f, 0.016944362f, -0.052147742f, 0.008220725f, -0.0071256286f, -0.014031409f, 0.030888995f, -0.0488209f, 0.023693945f, -0.028869415f, -0.041356407f, 0.04383332f, 0.037946783f, -0.03762301f, 0.0253614f, 0.04348954f, 0.0025011916f, 0.04552206f, -0.043593347f, 0.05588393f, -0.012209322f, 0.049313553f, 0.0057634274f, -0.029256804f, -0.002253665f, -0.03679027f, 0.055474095f, -0.0077011976f, 0.016335351f, -0.019135214f, -0.016484281f, -0.0027077342f, -0.026798356f, -0.055437215f, 0.000420322f, -0.030883076f, 0.009225428f, 0.02342481f, -0.06730809f, -0.07351665f, -0.015878836f, 0.012581473f, -0.00907949f, 0.029628098f, 0.0022203387f, -0.018638663f, -0.02980823f, 0.010384957f, 0.011436815f, -0.07164959f, -0.0010252325f, 0.032238267f, -0.08320426f, 0.0099245915f, -0.047009557f, 0.01669475f, 0.025031663f, -0.055416726f, 0.013281836f, 0.0061132037f, -0.038180105f, 0.02354158f, 0.02024007f, 0.0059188395f, 0.029630525f, 0.01825529f, -0.020992627f, -0.019255439f, -0.043662723f, 0.0027227488f, -0.010650286f, -0.059715185f, -0.0751717f, -0.008317443f, -0.06777113f, -0.04691184f, -0.03631483f, -0.065372124f, -0.07433256f, -0.05110035f, -0.070414275f, -0.009758851f, -0.0049041943f, 0.03149111f, -0.031368032f, -0.002495647f, -0.0053273253f, -0.013931166f, -0.06542089f, -0.052438516f, 0.008129484f, -0.0636163f, -0.032498896f, -0.03643909f, -0.067777775f, -0.049612004f, 0.010822715f, -0.06468742f, -0.07789343f, -0.07726327f, -0.07319639f, 0.021150038f, 0.004864611f, -0.06659279f, -0.024530824f, 0.00097138144f, -0.08718467f, -0.056332994f, -0.044631064f, 0.0031509795f, 0.010442556f, -0.008920394f, -0.002012112f, 0.052674685f, -0.03307248f, 0.033468224f, -0.030703073f, 0.022212122f, -0.021191789f, 0.010474803f, 0.014156147f, -0.018241253f, 0.028766027f, -0.05599205f, -0.0434048f, 0.04300042f, -0.052164182f, -0.028058505f, -0.01517229f, 0.017063597f, -0.0103840865f, -0.028677272f, -0.0069175567f, -0.027210437f, -0.04908279f, 0.026638774f, -0.036898546f, -0.0029962303f, -0.045513444f, -0.004248972f, 0.036907464f, 0.015650831f, -0.045902397f, 0.029723259f, -0.005946891f, -0.054766815f, -0.022170633f, -0.0140641015f, -0.056070082f, -0.02959589f, 0.029514553f, -0.049328566f, -0.029037967f, 0.011615248f, 0.039062176f, -0.054999605f, -0.046263542f, -0.0325824f, 0.015888762f, 0.035413716f, -0.020097164f, -0.025433367f, 0.040915962f, -0.0286805f, -0.05397014f, 0.004587823f, -0.0014162329f, 0.047469273f, 0.018170077f, -0.007734374f, 0.043346267f, -0.046660475f, 0.015459198f, -0.048652705f, -0.034129128f, 0.022012798f, -0.011020825f, 0.034497358f, -0.006092081f, 0.01209528f, -0.0067827576f, 0.034661498f, -0.021258768f, 0.039560296f, -0.039744053f, 0.046679612f, -0.023802329f, 0.027001735f, -0.007035988f, 0.06324929f, 0.013322137f, 0.044207476f, -0.021802986f, 0.01959771f, 0.032662746f, -0.0018809949f, -0.038666718f, -0.024916252f, 0.01703794f, -0.031836588f, -0.048566356f, -0.02455362f, 0.04096767f, 0.0140847415f, -0.0071777767f, 0.029579395f, -0.008504877f, -0.0379825f, -0.016420638f, -0.036412723f, 0.047286008f, -0.031333726f, 0.045874786f, -0.00663657f, -0.04313041f, 0.021761782f, 0.009896324f, 0.016945394f, -0.04584645f, 0.023733178f, -0.04895906f, 0.023323616f, -0.023241352f, 0.031611893f, -0.010160893f, 0.0063482556f, -0.029608276f, -0.009360198f, -0.0032812855f, -0.045430996f, 0.014280456f, 0.011376235f, 0.015857002f, -0.0112888785f, 0.019653875f, 0.0128368605f, 0.043194607f, 0.002017324f, -0.014749555f, -0.004301307f, 0.041982416f, 0.029705955f, 0.005291721f, 0.012650276f, -0.026232088f, -0.027886037f, 0.056383733f, 0.058265284f, 0.047610994f, -0.022635968f, -0.056104295f, -0.008263467f, 0.03520117f, -0.0022848488f, 0.039366573f, 0.04141154f, -0.02324932f, -0.006776311f, 0.008332294f, 0.042407885f, 0.03436729f, 0.01654088f, 0.03391412f, -0.047518913f, -0.020413548f, 0.02090542f, -0.0049146265f, -0.008025537f, -0.00037504226f, -0.042106424f, 0.029660016f, 0.04391496f, 0.023034556f, -0.003747112f, -0.050704967f, -0.02353246f, 0.033304937f, -0.041309f, 0.031050077f, 0.035178047f, -0.041600473f, 0.042811774f, 0.026582977f, -0.04073384f, 0.028144503f, 0.004248519f, 0.038254183f, 0.027264293f, -0.027222585f, 0.033936355f, -0.0042946828f, 0.013896984f, -0.011158929f, 0.036731724f, 0.026113411f, -0.0156636f, 0.042663462f, 0.008443606f, 0.041556545f, 0.047808666f, 0.016240101f, -0.050552275f, -0.02678817f, -0.046056453f, -0.02022307f, -0.05941407f, 0.02199959f, -0.028238215f, 0.050313402f, -0.057501357f, -0.041774537f, -0.049018316f, -0.023604948f, -0.042005397f, -0.034443635f, -0.05712397f, -0.0492438f, 0.0010255935f, 0.029378626f, -0.047692504f, -0.010821581f, -0.05771726f, 0.030660609f, 0.023140466f, -0.014472163f, -0.05584529f, 0.045671087f, -0.03008918f, -0.0040987474f, 0.04510953f, -0.018033385f, 0.05115987f, 0.035402533f, -0.053128354f, -0.048531f, 0.0108387135f, -0.04999732f, -0.052989f, -0.025381925f, -0.014667265f, 0.047848932f, 0.004217765f, -0.039867792f, -0.0010563114f, 0.009404431f, -0.009767033f, -0.058890287f, 0.005731021f, 0.006137253f, 0.047651295f, -0.0040754946f, -0.054631636f, -0.004768968f, 0.024971664f, -0.0048474334f, -0.05150991f, -0.049260914f, 0.044570852f, -0.006133446f, -0.054767694f, -0.011499725f, -0.012256208f, 0.0026926212f, -0.044899765f, -0.023813104f, 0.03988757f, -0.024325557f, 0.009973749f, 0.0060421214f, 0.04937712f, -0.004542634f, 0.03753392f, -0.0049021496f, -0.0035578848f, 0.042647585f, 0.023448402f, 0.0037544873f, 0.006676414f, -0.02175255f, 0.04742941f, 0.0380665f, -0.026729465f, 0.0325857f, -0.048205167f, -0.010358444f, 0.011321767f, -0.0214029f, -0.042509735f, 0.0023039044f, -0.024941564f, -0.0045773154f, 0.029747324f, 0.040969804f, 0.04097118f, 0.03600091f, -0.050288107f, -0.010636738f, 0.042905647f, -0.01916468f, -0.043436743f, -0.046637468f, -0.055483043f, 0.017327476f, 0.0018176853f, -0.044585355f, 0.015881091f, -0.031036615f, 0.023743564f, 0.019124039f, -0.032159656f, -0.0010163911f, 0.040148735f, 0.03225838f, 0.022595882f, -0.05923113f, -0.04913742f, 0.042282898f, -0.008259204f, -0.011555234f, 0.002392017f, 0.016851198f, 0.009543658f, 0.049768295f, -0.035519846f, -0.025040807f, 0.0035423653f, 0.032596666f, -0.053905685f, -0.0050967922f, -0.029601865f, -0.0020628765f, -0.044845544f, -0.012897856f, -0.025075218f, -0.0018676225f, -0.040690128f, -0.0006528127f, -0.010071005f, -0.041272108f, 0.022755064f, 0.016315132f, -0.055472914f, -0.0099943625f, 0.033004444f, -0.006965494f, 0.011573027f, -0.0329073f, -0.044080723f, 0.009509846f, -0.061922926f, -0.06399347f, 0.006080466f, 0.0068124775f, 0.0036695923f, 0.021058457f, 0.011472186f, -0.017055217f, 0.03357748f, -0.012619211f, -0.03872192f, 0.02709679f, 0.011426228f, -0.031057408f, 0.013878352f, -0.0046881204f, -0.0100684045f, -0.025812197f, 0.018345056f, -0.031336945f, -0.044100977f, 0.00615842f, -0.01634231f, 0.016145509f, 0.013284587f, 0.030356387f, -0.06443073f, 0.00024054505f, 0.02460061f, -0.00848874f, 0.0061841747f, 0.00625598f, -0.010242597f, 0.03035425f, -0.045937687f, -0.050707225f, -0.05555499f, -0.06998017f, -0.010522761f, 0.027329747f, 0.026313804f, -0.014074866f, -0.054741137f, -0.023750242f, -0.06694181f, -0.020373724f, 7.2772496e-06f, -0.06297274f, -0.062482227f, 0.014206218f, 0.034442868f, -0.06903426f, -0.031811886f, -0.03262316f, -0.06942451f, -0.05437706f, 0.025197724f, -0.01630607f, 0.017624246f, 0.017089145f, -0.041354615f, 0.02344499f, -0.0070993444f, 0.0024605687f, -0.018563284f, 0.033374816f, 0.0014890274f, -0.013020929f, -0.022369096f, -0.029876156f, 0.033504166f, 0.019028341f, -0.038297787f, 0.034228504f, -0.021393929f, -0.025164783f, 0.03121683f, 0.04145173f, 0.015059428f, -0.030367687f, -0.028626943f, 0.042919133f, -0.05385517f, -0.018501624f, 0.034975123f, 0.051149726f, -0.026813949f, -0.03907553f, 0.03763446f, -0.02406623f, -0.009778553f, 0.0054874294f, 0.043386195f, -0.030810064f, -0.020001173f, -0.05568254f, 0.022668043f, -0.05191146f, 0.034211066f, 0.026767079f, 0.048043713f, 0.03860955f, 0.030968126f, 0.002592734f, 0.015191077f, 0.033752307f, -0.058290556f, 0.028241953f, 0.043084312f, -0.029217567f, -0.042846195f, -0.022663891f, 0.05102534f, 0.010491562f, 0.019881997f, -0.03666757f, 0.022050815f, -0.04791242f, 0.026612572f, -0.014104798f, 0.035303652f, 0.030509632f, -0.019293359f, -0.036552988f, 0.020160943f, 0.049885575f, 0.015481405f, -0.0214692f, -0.003749948f, -0.028551595f, 0.023403883f, 0.011528561f, -0.0595165f, 0.0473782f, -0.03905281f, -0.054185078f, 0.010922446f, 0.04272379f, 0.021947887f, 0.018610582f, 0.04975422f, -0.052302983f, -0.05717889f, -0.010596871f, -0.0021912756f, -0.037278026f, -0.02053461f, 0.03896783f, 0.023937335f, 0.038244516f, 0.033634823f, -0.008121746f, 0.039950494f, -0.036926802f, -0.04905927f, -0.029832855f, 0.03854886f, -0.030186286f, -0.021210795f, 0.03186881f, -0.04656218f, 0.02594541f, 0.046422135f, -0.030473726f, -0.004253256f, 0.013304264f, 0.00036151404f, 0.035225056f, -0.045440897f, 0.032498058f, -0.03923134f, 0.02992453f, 0.0006986095f, 0.00041656164f, -0.0015661241f, 0.025020262f, 0.022646425f, 0.009109143f, 0.025512328f, -0.018253325f, -0.014836655f, 0.042942844f, -0.029366182f, -0.051378477f, -0.016295735f, 0.046318896f, 0.050494134f, -0.01404596f, -0.025071621f, 0.020280425f, 0.029399978f, -0.014312928f, 0.036720507f, 0.0041570133f, -0.033181883f, 0.030752327f, 0.015838536f, -0.017860312f, -0.010175071f, -0.011805151f, 0.038101614f, -0.032391302f, -0.019051356f, -0.029207207f, -0.04190895f, -0.005960586f, -0.009674497f, -0.055661283f, 0.044664647f, 0.009307742f, 0.017188096f, 0.027271958f, -0.030233474f, 0.05128845f, -0.057261307f, -0.008139263f, -0.050990965f, 0.021552416f, 0.020746097f, 0.050741315f, -0.0021320987f, -0.025051197f, 0.050943986f, -0.031141667f, -3.7208934e-05f, -0.015616645f, -0.030089589f, -0.010113378f, -0.039478928f, -0.040676534f, -0.057728127f, -0.023646977f, -0.06278281f, 0.031122021f, 0.017584931f, 0.02352608f, -0.033511646f, -0.03609779f, -0.05138189f, -0.024504852f, -0.020591948f, -0.0074667013f, 0.011620892f, -0.034405198f, -0.027239725f, 0.0036014768f, -0.0403029f, -0.019202325f, 0.026918106f, -0.058078427f, 0.031946022f, 0.009587709f, -0.008158381f, 0.04724639f, 0.006833074f, 0.0064840047f, -0.0055474625f, 0.003202961f, -0.07321728f, -0.056413524f, 0.0020713606f, -0.05689078f, -0.011769094f, -0.03142163f, -0.035312034f, -0.029381372f, -0.046265487f, -0.032939173f, -0.008471502f, 0.0004624583f, -0.07423635f, -0.0518318f, -0.06368385f, 0.028495874f, -0.047645804f, -0.046209045f, -0.06672353f, -0.033872355f, 0.0019321501f, -0.015210291f, -0.031663127f, -0.06606919f, 0.02678957f, -0.004884562f, -0.0799421f, 0.010113916f, 0.003191129f, -0.039014436f, 0.006228624f, 0.010355459f, -0.01188849f, 0.04947238f, 0.046028428f, -0.046655208f, -0.00069755845f, -0.025334172f, -0.0012242416f, -0.05366068f, 0.024519183f, 0.054492578f, -0.037601482f, -0.054398376f, 0.01123687f, -0.05439483f, -0.0033951919f, -0.04918981f, -0.025586337f, 0.04321099f, -0.033449907f, -0.026940582f, 0.010673691f, -0.07149627f, -0.063437074f, -0.022831326f, 0.015009545f, 0.015836267f, 0.032527767f, -0.018942727f, -0.0600326f, 0.047704272f, 0.005297859f, -0.0036356628f, -0.037703734f, -0.067211926f, -0.030419616f, -0.0227612f, 0.029567014f, -0.044021882f, 0.04248644f, 0.016745316f, -0.020361742f, -0.054350093f, 0.01119808f, 0.027629778f, -0.008362704f, -0.0368454f, -0.05384433f, -0.050989263f, -0.050305683f, -0.02052253f, 0.024822181f, -0.013770944f, 0.03350802f, 0.011405014f, -0.01150606f, -0.005041417f, 0.023899855f, 0.06519024f, -0.005121414f, -0.0030225688f, 0.014707099f, 0.016878748f, 0.017162004f, 0.014012449f, 0.007183558f, 0.032787286f, -0.0069012605f, -0.055206783f, -0.04442852f, 0.01234408f, 0.042629734f, 0.0017127078f, 0.034818813f, 0.029861351f, -0.02606156f, 0.0006884791f, -0.029298713f, 0.032497574f, 0.04699692f, -0.054737516f, -0.01694055f, 0.049088992f, 0.006152588f, -0.067257f, -0.066647254f, 0.03205222f, 0.020751107f, 0.050862256f, 0.052665398f, 0.008459907f, -0.06363501f, 0.02433545f, -0.049525112f, -0.03411796f, -0.06708298f, -0.024159333f, -0.0075449f, 0.030390462f, 0.045500167f, -0.009908298f, -0.035247803f, 0.0033303415f, -0.036639888f, -0.039491754f, 0.042958207f, -0.035072118f, 0.035403214f, -0.049567416f, -0.014567396f, -0.030660234f, 0.05613074f, 0.05160704f, -0.031759076f, -0.024483819f, -0.0296753f, -0.052504823f, 0.04899365f, 0.0388964f, -0.0007649009f, -0.01816349f, 0.02739016f, 0.015282749f, -0.020428672f, 0.011771737f, 0.038412504f, 0.028485477f, -0.012524715f, 0.057308782f, 0.02148979f, 0.0076671545f, -0.023834316f, 0.0096140355f, -0.019115843f, 0.057241797f, 0.026565796f, 0.029999174f, -0.006743717f, 0.021393813f, 0.021236002f, 0.053685173f, -0.046771795f, 0.04192122f, 0.040659495f, 0.0528144f, 0.0046407925f, 0.0070699514f, -0.044784237f, -0.020784674f, 0.034912415f, -0.032668076f, 0.031908665f, 0.040073693f, -0.053002764f, 0.052526914f, -0.01101488f, 0.01086868f, -0.0036025501f, 0.026783021f, -0.010209111f, -0.024723327f, 0.00077295233f, 0.0024018062f, 0.042268455f, 0.01867223f, -0.020261467f, -0.04013082f, -0.00028152566f, 0.038077638f, 0.0033650165f, 0.025253616f, 0.0071420916f, -0.022148209f, 0.020352958f, 0.034626074f, -0.043318518f, 0.03711039f, -0.0021064857f, 0.0206331f, -0.044007868f, -0.04154333f, -0.042594217f, 0.009362601f, -0.04789576f, -0.020153057f, 0.02700952f, 0.018113136f, -0.031558264f, -0.038763035f, -0.0183829f, -0.035383254f, 0.008290844f, -0.034429576f, 0.019349884f, -0.0099176625f, -0.053068686f, 0.040064648f, 0.041369513f, -0.02677209f, 0.016815739f, 0.049032558f, 0.031880792f, -0.019735938f, 0.03336419f, -0.017308122f, 0.0416009f, -0.037022762f, 0.031006241f, -0.042619098f, 0.027847687f, 0.036779817f, 0.014514575f, 0.012483749f, -0.016421616f, -0.011120027f, 0.02467751f, -0.015337687f, -0.039779894f, 0.0019111051f, -0.031318657f, 0.042069998f, -0.0351544f, -0.00868344f, -0.033658225f, -0.05772369f, 0.035193082f, 0.027363801f, -0.00570973f, 0.044557925f, 0.019934041f, 0.04749625f, 0.03792023f, 0.0064526615f, -0.010664859f, -0.05767132f, -0.017553283f, 0.021190397f, -0.009404127f, 0.048916698f, 0.010898574f, -0.03171445f, -0.0050979257f, 0.03795345f, 0.04427909f, 0.0101494985f, -0.037188772f, 0.0132969795f, -0.0052652345f, -0.051951524f, -0.019555958f, 0.020229083f, 0.0015690646f, -0.023323305f, -0.0484449f, -0.056946255f, 0.0068250336f, -0.0054526827f, 0.03740074f, -0.0398952f, -0.0030677158f, 0.015191964f, -0.025175378f, 0.031194495f, 0.05087574f, 0.032725345f, -0.059458327f, -0.034470167f, 0.024932627f, -4.3801614e-05f, -0.038421422f, -0.008883466f, -0.027996304f, 0.005666672f, -0.046152253f, -0.014268741f, -0.011313144f, -0.013926937f, 0.03629883f, -0.033482734f, -0.012778745f, 0.043947484f, 0.0024022956f, -0.0049876897f, -0.008918859f, 0.027967134f, 0.044212386f, -0.020872202f, 0.040090594f, -0.03847627f, -0.04561761f, -0.054807674f, 0.0040794546f, -0.02188559f, 0.00597646f, 0.016749704f, -0.033729926f, 0.04164986f, -0.013868187f, -0.013441399f, -0.003923974f, -0.010538902f, -0.046889935f, -0.030150833f, 0.03128074f, -0.011266796f, 0.007096177f, -0.012120395f, 0.013090851f, -0.03670677f, -0.056337543f, -0.02789874f, 0.026785566f, 0.051851217f, -0.056295153f, -0.053487696f, 0.0060448963f, 0.0036579745f, -0.05380438f, 0.042442247f, -0.03708523f, 0.022292946f, -0.039419986f, -0.04990021f, 0.04508338f, -0.024640843f, -0.02675596f, -0.040161293f, -0.032827202f, 0.042870585f, 0.037152816f, 0.039316896f, 0.0046275696f, 0.003673274f, 0.021315834f, -0.052638814f, 0.03649041f, 0.032613944f, -0.031393692f, -0.05401256f, 0.022434928f, -0.05778708f, -0.047923476f, -0.039437097f, -0.001872972f, 0.017267743f, -0.023390582f, -0.013217953f, -0.010285102f, -0.05067672f, -0.039988194f, -0.04185674f, -0.013743379f, 0.03693042f, 0.018696407f, 0.016634628f, 0.008187986f, -0.03472093f, -0.030972144f, 0.029917073f, -0.017232f, 0.005715205f, 0.032786734f, 0.039102532f, 0.009554306f, -0.034848485f, -0.0064999834f, -0.057252705f, 0.042528898f, 0.03764817f, -0.04796936f, -0.034482945f, 0.04129982f, -0.061528284f, -0.04434654f, -0.034705803f, -0.0042220033f, -0.049368583f, 0.012176351f, -0.011573478f, 0.03200931f, -0.037148975f, 0.0070567266f, 0.038982753f, -0.040653083f, -0.034277104f, 0.02887332f, -0.02290062f, -0.03504433f, -0.023103053f, -0.056014705f, 0.008983019f, -0.018595496f, 0.020630997f, 0.03658912f, -0.014917063f, -0.0027224233f, 0.013065245f, -0.002846694f, 0.036928248f, 0.026406122f, 0.034144532f, -0.04072229f, -0.0037066457f, 0.024379278f, -0.037908874f, -0.00090078433f, -0.05357014f, -0.036285095f, 0.019322218f, 0.024691721f, -0.04035446f, 0.03403045f, -0.008325679f, 0.015793284f, 0.006718707f, -0.00018293636f, 0.0017344335f, -0.06359907f, -0.0016503646f, 0.029844778f, 0.010839498f, 0.036960334f, -0.05203679f, -0.03135696f, -0.0053742086f, -0.05785485f, 0.047174904f, -0.03369343f, -0.021555703f, -0.0074890433f, -0.008830351f, 0.009144718f, -0.043503694f, -0.021997638f, -0.005201774f, 0.013370453f, 0.017176913f, -0.04232549f, 0.0105484435f, 0.038090613f, 0.00042826572f, -0.03957447f, -0.01945005f, -0.023469467f, -0.03000032f, -0.00744402f, -0.034535956f, -0.0034552605f, -0.049318872f, 0.04642321f, -0.016223298f, 0.050104525f, -0.059298232f, -0.015794631f, -0.034583442f, -0.019246982f, 0.002272473f, -0.057100836f, 0.009976181f, -0.016653916f, 0.023273885f, -0.042819034f, 0.039213914f, -0.059163127f, -0.036320522f, -0.05640232f, 0.028087927f, -0.054943908f, -0.03832393f, -0.020647895f, 0.014224912f, -0.005017352f, 0.049521897f, -0.039933447f, 0.010204764f, -0.0069397604f, -0.015521545f, 0.04232278f, 0.035774842f, -0.04084155f, -0.004450602f, -0.005450885f, 0.028047992f, -0.012394792f, -0.030766752f, 0.020121602f, -0.0030007376f, -0.040846992f, 0.02229594f, 0.015605563f, -0.02945474f, 0.001407487f, -0.0030269534f, -0.0589053f, -0.0017214271f, 0.013953086f, 0.02232388f, -0.05339777f, 0.048443157f, 0.03282339f, 0.018117946f, -0.017904378f, -0.054291867f, 0.03898338f, -0.011838139f, 0.010058853f, -0.044059783f, -0.016558293f, 0.031995025f, 0.031972453f, 0.0024174084f, -0.04936527f, 0.042707324f, 0.029182306f, -0.02397619f, -0.020979349f, 0.033759344f, -0.020981846f, -0.042395633f, -0.030999552f, -0.03649518f, 0.04395935f, 0.037133764f, -0.034353662f, 0.04272807f, 0.03938933f, 0.027636496f, -0.023329902f, -0.010635727f, -0.015106959f, 0.002664061f, 0.053198528f, 0.027163988f, 0.052935764f, 0.022493802f, 0.030805023f, 0.025175173f, 0.037328087f, 0.057001792f, -0.035695832f, 0.026788907f, 0.03758603f, 0.007089364f, 0.038988136f, 0.043317046f, -0.023941077f, 0.04885254f, 0.0063092993f, 0.033731747f, 0.0008893341f, -0.04732885f, -0.045494452f, 0.053851493f, 0.013022328f, 0.047577012f, -0.0059505566f, 0.030285368f, 0.010720794f, -0.014677545f, 0.001873517f, -0.046157666f, -0.057187613f, 0.040421776f, -0.0032255184f, 0.015240742f, 0.00013963628f, 0.00857543f, -0.044874944f, 0.038019247f, -0.04238908f, -0.011502569f, -0.011815909f, 0.050712034f, -0.024313552f, -0.043516826f, 0.0046450105f, 0.038217325f, 0.0027329654f, -0.0057315235f, 0.03561356f, 0.0039169807f, -0.03708579f, -0.009692837f, -0.03820203f, -0.042412877f, -0.021495922f, -0.058534324f, -0.063960075f, 0.007830965f, 0.018207587f, -0.04513597f, -0.032529343f, 0.01500821f, -0.050317496f, 0.006821505f, 0.004101744f, -0.07210276f, -0.04236709f, -0.028591938f, 0.004717022f, -0.013749856f, -0.016401049f, 0.00020161878f, -0.06702712f, -0.025086407f, -0.012776018f, -0.033810504f, -0.07842721f, -0.038078155f, 0.010710677f, -0.073560104f, -0.057042874f, -0.054085795f, -0.04854035f, -0.07286218f, -0.053466633f, -0.0008916252f, -0.020503433f, -0.057499584f, -0.031607598f, -0.07228774f, 0.031178962f, -0.05994678f, -0.026980206f, 0.010366688f, -0.023373669f, 0.010016286f, -0.046511702f, -0.04176383f, 0.03160267f, 0.009552979f, 0.04060069f, -0.065807335f, -0.06318841f, -0.07736266f, -0.0063071237f, -0.004492472f, 0.015511036f, -0.02750705f, -0.041714806f, 0.029694362f, -0.016092442f, -0.041691955f, -0.026077937f, -0.020531224f, -0.06630367f, -0.0011641821f, -0.055996213f, -0.00051458133f, -0.05453991f, 0.009879745f, -0.008450059f, 0.034480914f, -0.061456323f, -0.033889674f, -0.011146107f, 0.018558623f, -0.004781616f, 0.0016242012f, 0.017611882f, -0.012028149f, 0.016668992f, 0.023776835f, -0.007509353f, 0.010704176f, -0.009824927f, -0.0041626543f, -0.029098831f, 0.033539146f, -0.033715352f, -0.042926427f, 0.01287948f, 0.043729834f, -0.04823272f, -0.014142644f, -0.05358035f, -0.048141293f, -0.05123645f, -0.0014572031f, -0.046154376f, -0.039512176f, -0.017919473f, 0.024608748f, 0.025346464f, -0.051181804f, 0.0025017497f, -0.0071919532f, -0.046881184f, -0.05490242f, -0.021388464f, -0.012188629f, -0.014984796f, -0.050237108f, -0.05920319f, -0.00023408145f, 0.0120711f, 0.027869608f, 0.020178596f, -0.027506556f, 0.01437286f, 0.018310353f, -0.0064684055f, 0.03329538f, 0.040022004f, -0.052514337f, 0.00926406f, 0.00037776915f, -0.0013731968f, -0.036165543f, 0.035070702f, 0.021017423f, 0.007962884f, 0.04682511f, -0.015309726f, -0.021621453f, -0.008394386f, -0.019888695f, -0.033085614f, 0.026187807f, -0.04559674f, 0.0096928775f, 0.010254316f, 0.049025953f, 0.04800775f, -0.034112323f, -0.055853266f, 0.029655706f, 0.034992475f, -0.0071159783f, 0.011388746f, -0.038763f, -0.014974302f, 0.006895447f, 0.011950355f, -0.04392085f, -0.05390843f, -0.0050445003f, -0.018228916f, -0.023455815f, 0.01064771f, 0.048885565f, -0.04327616f, 0.018096752f, 0.01995144f, -0.0014243983f, -0.03335081f, 0.0028027992f, -0.026267445f, -0.014411281f, -0.02918891f, -0.03509655f, 0.05226772f, -0.0006306637f, -0.0027342706f, -0.032838423f, -0.0448641f, 0.054794174f, 0.025381975f, 0.048230182f, 0.048842024f, 0.045664594f, 0.0063444413f, 0.029976731f, -0.048615497f, 0.048663232f, 0.034380525f, -0.043385956f, 0.044704817f, -0.042709988f, -0.010340388f, 0.041433677f, 0.03742311f, 0.04013722f, 0.042192332f, 0.02967208f, 0.056550197f, 0.040717516f, 0.039895162f, -0.02389522f, -0.021320242f, 0.018441385f, 0.045810454f, 0.024180781f, 0.007411573f, -0.0062298314f, 0.039949477f, 0.01927379f, -0.011636276f, -0.022224376f, -0.04229789f, 0.04921693f, 0.05575327f, -0.029557783f, -0.02975884f, 0.036934175f, 0.050189983f, 0.025102735f, 0.03001799f, -0.034716256f, -0.0055406215f, 0.015768554f, 0.011914287f, -0.03058751f, 0.049168438f, 0.020447815f, -0.042287454f, 0.026119543f, 0.0032973017f, -0.022528483f, 0.055847988f, -0.046306953f, 0.019079348f, 0.01714876f, 0.040775333f, -0.04285883f, 0.034450267f, -0.028526936f, 0.011441139f, 0.00014608543f, 0.054583263f, -0.0336524f, 0.02427209f, 0.02910229f, -0.04655312f, -0.024876835f, 0.021642271f, -0.041727073f, 0.017304473f, 0.020055315f, -0.046854313f, -0.018175488f, 0.013273038f, -0.043782245f, -0.023768032f, 0.012373722f, -0.041938975f, -0.056880552f, -0.0044313963f, -0.02107757f, -0.053645913f, 0.028041938f, -0.0052255406f, 0.018402798f, 0.043298636f, 0.04583028f, -0.052592415f, -0.04100037f, 0.024242667f, 0.039351154f, 0.0047130166f, -0.018331958f, 0.0024145853f, 0.048524715f, 0.0056541036f, -0.01819733f, -0.0570117f, 0.013392426f, -0.014916535f, -0.05973191f, -0.05232671f, 0.04734486f, 0.040875196f, -0.0262668f, 0.029045954f, -0.056807604f, 0.026940262f, -0.023917101f, -0.0011316166f, 0.034848344f, -0.029716624f, 0.0210735f, -0.005451246f, 0.0038012564f, -0.03744633f, -0.0018622497f, -0.044105057f, -0.016730847f, 0.026002282f, -0.011998667f, 0.048005592f, -0.020929798f, -0.039934624f, 0.012967847f, -0.0419364f, 0.015326513f, 0.033865575f, -0.029206576f, 0.042062383f, 0.015703384f, -0.008624626f, -0.05586234f, -0.059240066f, -0.059837338f, 0.011927999f, 0.005197398f, 0.011854772f, -0.03961939f, 0.019429136f, -0.03577574f, -0.047592163f, -0.01382887f, 0.016011178f, -0.041635264f, -0.0030672208f, 0.025669578f, 0.04188891f, 0.01631607f, -0.042014446f, -0.02408528f, 0.028602758f, -0.026927505f, -0.039514024f, 0.022147374f, -0.02872396f, -0.016236806f, -0.026459973f, 0.033678293f, 0.03989956f, 0.040713143f, 0.0049738423f, -0.014730714f, -0.010145118f, -0.0173121f, -0.029092487f, 0.006681877f, 0.036058534f, -0.016876472f, 0.003130531f, -0.005193172f, 0.039118063f, -0.038932547f, 0.025636418f, -0.029159961f, -0.05665867f, 0.028782781f, 0.046390064f, -0.0034874943f, 0.035480272f, 0.022028357f, -0.03253527f, 0.002446552f, 0.028343752f, -0.01637129f, -0.013976256f, -0.045683023f, 0.008017663f, -0.018558552f, 0.022914926f, 0.001544207f, -0.048797973f, -0.03798733f, -0.055588305f, 0.027214427f, 0.03321716f, -0.030972539f, -0.011744787f, -0.026346883f, -0.021379834f, 0.027453277f, -0.055772133f, 0.009225679f, -0.01050142f, -0.012169998f, -0.04000625f, -0.010006151f, -0.017546691f, -0.042170815f, 0.0019291014f, 0.017956419f, 0.010585851f, 0.028722297f, -0.031038065f, -0.01460544f, -0.02646294f, -0.056480743f, -0.00029090125f, 0.03572778f, 0.024471616f, -0.0057332846f, 0.046003133f, 0.024197116f, -0.024009353f, -0.024383273f, 0.02180259f, -0.007321092f, -0.038859986f, 0.008647686f, -0.026119893f, -0.023010243f, -0.0097240135f, 0.011373252f, -0.04020016f, -0.013798606f, -0.0029794339f, 0.014486738f, 0.038079105f, 0.014583207f, -0.04452004f, -0.040962372f, -0.011785786f, 0.03183652f, -0.057412617f, 0.050929252f, 0.013600661f, -0.026978228f, 0.043841384f, -0.024965283f, -0.020188387f, 0.034847394f, -0.014593643f, -0.054200493f, 0.032358874f, -0.05223222f, 0.007842586f, 0.049821585f, -0.04245214f, 0.026467267f, -0.04164254f, -0.05422472f, -0.03429099f, 0.025037875f, 0.0028312285f, -0.022909766f, -0.037797287f, -0.0018739628f, -0.005973012f, 0.03786296f, 0.03941579f, -0.0072747134f, -0.029585348f, -0.0071980357f, -0.030635476f, -0.0007607888f, -0.02463304f, -0.028332012f, 0.0023877965f, 0.03690727f, 0.026815534f, -0.03533425f, -0.05943994f, -0.035591815f, -0.013494843f, 0.01608915f, 0.048851386f, 0.0076420475f, 0.0369271f, -0.022493796f, -0.016299883f, -0.012004723f, -0.01433785f, -0.03646525f, 0.001754149f, 0.009254339f, -0.056413017f, -0.024218457f, 0.035998255f, -0.030273981f, -0.02063489f, -0.042983558f, 0.008665001f, -0.04793745f, -0.0113757f, -0.011259252f, -0.03034634f, -0.036330618f, 0.050533626f, 0.0038089005f, 0.035161704f, 0.040510003f, -0.051630203f, 0.007260336f, 0.020844404f, 0.0214517f, 0.01616735f, 0.043858208f, -0.04825095f, -0.02128508f, 0.035452824f, -0.029337704f, -0.053021215f, -0.02077962f, -0.026635844f, 0.03973754f, -0.044468477f, 0.010366403f, -0.0038232508f, 0.022801876f, -0.025567185f, -0.032871515f, 0.0493406f, 0.045383263f, 0.019426802f, 0.020329654f, -0.04538394f, 0.0505028f, 0.01753226f, 0.013409294f, -0.03457292f, 0.03573782f, 0.022353707f, -0.050701305f, 0.00491248f, -0.03566046f, -0.0083303815f, -0.03642063f, 0.015319111f, -0.045761608f, -0.029883148f, 0.048222784f, -0.037223008f, -0.015645733f, -0.006325618f, -0.03873077f, 0.00873085f, -0.009271701f, -0.02685536f, 0.045144692f, -0.017137552f, -0.021649975f, 0.028387561f, -0.0503541f, -0.04576037f, 0.012212046f, 0.0005036809f, -0.024295615f, -0.010868911f, 0.02725417f, 0.0027317442f, 0.0028299037f, -0.026981335f, -0.057794955f, 0.044460125f, -0.04455885f, -0.050550196f, 7.966094e-05f, 0.030751117f, -0.021583335f, 0.01864793f, 0.018631859f, -0.015694775f, -0.014606585f, -0.0053385673f, -0.04141924f, -0.059356123f, -0.056202915f, -0.0099843275f, 0.05007974f, 0.0011864664f, 0.032261f, 0.013601775f, 0.0049155904f, -0.016453577f, 0.045360405f, 0.055095304f, 0.01940919f, 0.0018936545f, -0.033051968f, 0.012338679f, -0.0057832003f, 0.048812207f, -0.023672f, -0.0071408227f, -0.03866271f, 0.055459384f, -0.004033275f, 0.025729988f, 0.049172018f, -0.021866295f, 0.052541245f, 0.0067425445f, -0.038594417f, 0.0019590594f, 0.03971749f, -0.026674734f, 0.04042824f, -0.026028607f, 0.023130301f, -0.05165552f, -0.05037276f, 0.0073996224f, 0.051285636f, -0.008882206f, 0.05141784f, 0.051946823f, -0.019754846f, -0.028546453f, -0.027005566f, -0.02280875f, 0.034979712f, -0.006295204f, -0.034387562f, 0.054626096f, -0.051220484f, 0.03784998f, 0.022220317f, -0.023404531f, -0.039039f, -0.010956526f, 0.045143645f, -0.0094065145f, -0.05131025f, -0.008526284f, -0.022686824f, -0.004137054f, 0.004616659f, 0.029983576f, 0.025542963f, 0.011488918f, 0.05441944f, -0.016833637f, -0.034799777f, 0.012565505f, -0.054295063f, -0.04977773f, -0.042526457f, -0.009398103f, -0.030241145f, -0.035325088f, 0.034212288f, 0.0019566864f, 0.053913604f, 0.04559583f, 0.0053698085f, 0.0008684918f, 0.009254787f, 0.03158809f, 0.037761886f, -0.02508733f, -0.013726898f, 0.040302884f, -0.048737127f, -0.042193994f, -0.040666766f, -0.02374344f, 0.0064013405f, 0.005229365f, -0.047579926f, -0.07285534f, 0.012959916f, -0.039740343f, 0.017204337f, -0.014056055f, -0.0736315f, -0.074943595f, 0.021845631f, -0.009499285f, -0.06189765f, -0.076040514f, -0.061489914f, -0.0043335785f, -0.015404399f, -0.0055667874f, 0.020751888f, -0.007778339f, 0.009281832f, -0.015652524f, -0.061599053f, -0.06413339f, -0.037474185f, 0.018126963f, -0.030697314f, -0.08067544f, -0.041206807f, -0.031736035f, -0.038820524f, 0.016069278f, 0.021869117f, -0.08646572f, -0.043716192f, 0.024086159f, 0.015289918f, 0.0153473485f, -0.054053232f, -0.05226322f, -0.036613178f, 0.019300116f, -0.027545791f, 0.0060976814f, 0.007659739f, -0.013456051f, -0.059634354f, -0.07227748f, -0.043541573f, 0.014692586f, -0.033498794f, -0.015489205f, -0.039844032f, -0.0042750333f, -0.039553836f, -0.05723526f, -0.069454685f, -0.017043803f, -0.04408882f, -0.04271651f, -0.0067802775f, -0.047130935f, -0.016842347f, -0.023695998f, -0.046191923f, -0.064700425f, -0.062098827f, -0.039792232f, -0.06468417f, -0.013654128f, 0.022543201f, -0.013892141f, -0.013682919f, -0.06721457f, -0.0034797078f, -0.06734958f, -0.022789728f, 0.026153082f, -0.02938319f, -0.059935797f, -0.05706253f, 0.011714526f, -0.04159463f, -0.054073203f, 0.0029351467f, -0.049884766f, -0.04588081f, -0.046369713f, -0.04304474f, -0.023757663f, -0.007291343f, -0.008138885f, 0.005529077f, -0.06046999f, -0.000470779f, -0.0068970486f, -0.057437602f, -0.0019905283f, -0.053595416f, -0.021274742f, -0.058298893f, -0.031109631f, -0.004199241f, 0.027229222f, -0.056257315f, -0.015783653f, -0.032015774f, -0.08716525f, 0.008966606f, 0.0055020815f, -0.03687081f, -0.081850864f, 0.013818756f, 0.06667065f, 0.0007324406f, -0.03683403f, -0.0052136187f, 0.018932803f, -0.059153408f, -0.053523954f, 0.0023953249f, -0.047869567f, 0.042633485f, -0.02810218f, -0.053439636f, -0.04840016f, 0.030994581f, -0.034306113f, -0.03570574f, -0.05780385f, -0.007859526f, 0.005320113f, -0.06263892f, -0.04427556f, -0.030122591f, -0.012241028f, 0.0024265312f, 0.029319877f, -0.03761992f, -0.031652402f, -0.030766567f, -0.0018288491f, -0.038833227f, -0.030201137f, 0.016704705f, -0.047118798f, -0.052068084f, 0.021137727f, -0.052695516f, 0.037032172f, -0.024763074f, -0.036513347f, -0.0006964311f, 0.048011724f, -0.030490758f, 0.030507699f, 0.033973873f, 0.0035251307f, -0.025799872f, -0.035981257f, -0.026337564f, -0.043228786f, 0.038454186f, 0.016460765f, 0.02651244f, 0.035285193f, -0.04216063f, -0.037089095f, 0.011969622f, 0.054394472f, 0.017648946f, 0.016172212f, 0.050947372f, 0.0027809404f, -0.03712368f, 0.035204742f, -0.050344124f, -0.015659556f, 0.019493792f, -0.052035835f, 0.05171891f, 0.0034916138f, -0.033086155f, 0.020533029f, -0.005634955f, -0.0026254132f, 0.039012782f, -0.023579665f, 0.031827096f, -0.028034754f, -0.015466161f, 0.03010453f, -0.03852085f, 0.05171824f, 0.0010608956f, -0.050693195f, 0.046249766f, -0.050443158f, -0.023603782f, -0.037548147f, -0.025184367f, -0.011309292f, 0.040811006f, -0.036435485f, -0.012725634f, 0.021397699f, -0.024773266f, -0.029487068f, -0.03400155f, -0.02165715f, -0.037981234f, 0.030504849f, 0.019050296f, -0.012484089f, -0.0034646727f, 0.043894332f, -0.04930602f, -0.048817806f, -0.0326666f, -0.018376563f, 0.036022317f, -0.03173755f, -0.03160304f, 0.03422573f, 0.010802615f, 0.0473048f, -0.04668268f, -0.026007202f, -0.050000865f, -0.0023537478f, 0.004142139f, -0.045871776f, 0.046133284f, -0.008862853f, -0.035478987f, 0.041757133f, 0.056542434f, 0.044379774f, 0.013659228f, -0.033557333f, -0.006505329f, 0.03171533f, -0.011582883f, -0.035702646f, -0.03215858f, 0.031484563f, -0.05340165f, -0.04431342f, 0.017115584f, 0.017008847f, -0.009078956f, 0.016810859f, 0.021059075f, -0.006090277f, -0.052018885f, 0.040701527f, -0.038654644f, -0.016787676f, 0.034763798f, -0.0038951428f, -0.042956904f, -0.054908328f, -0.051417097f, 0.039226606f, -0.028612215f, 0.044111837f, -0.053565174f, -0.021506354f, 0.04812919f, -0.046393935f, -0.011975489f, 0.037200827f, 0.0019359335f, -0.026983017f, -0.041219093f, -0.041107073f, 0.021893078f, -0.0055944775f, -0.0028580278f, -0.046722762f, -0.03254103f, 0.0060946736f, 0.0077391616f, 0.025761677f, 0.043478258f, 0.049386382f, -0.034832258f, 0.049379807f, -0.0068366295f, -0.0027784791f, -0.0113250725f, -0.029218871f, -0.05255422f, -0.005500186f, -0.04306025f, -0.0477217f, -0.023641504f, 0.011979926f, -0.037580594f, -0.054266695f, 0.014456522f, -0.052231316f, 0.023268616f, -0.029344978f, 0.028582757f, 0.02646856f, -0.014985717f, 0.004997609f, 0.00548713f, -0.014984539f, 0.017554853f, -0.058588374f, 0.023966273f, 0.029534291f, 0.027540645f, 0.04543533f, 0.047781892f, 0.044451933f, -0.03877444f, 0.043675277f, 0.040081993f, -0.02153372f, -0.01044353f, -0.039604798f, -0.024328606f, -0.0012150627f, 0.026873881f, 0.06741886f, -0.013333568f, 0.0060870023f, -0.008151533f, 0.058776636f, 0.04249102f, -0.016017606f, 0.026609927f, -0.028115323f, 0.037684582f, 0.0008470198f, 0.009059912f, 0.019017853f, 0.04669158f, 0.03131663f, 0.051551472f, 0.031315997f, -0.0004145366f, 0.06529553f, 0.013419585f, -0.043936826f, -0.035925414f, 0.03608041f, 0.01610263f, 0.037376083f, -0.0024703445f, 0.0462692f, 0.06442283f, 0.008040465f, 0.008265271f, 0.053126182f, 0.062480327f, -0.0044407817f, -0.0007120981f, 0.012931656f, 0.005261297f, 0.007979794f, -0.027520167f, 0.017829983f, 0.015141105f, -0.033264305f, -0.019551717f, 0.026226081f, 0.063399136f, -0.021287479f, 0.05656308f, -0.022301586f, -0.012693341f, 0.045840565f, -0.017939275f, -0.020425346f, -0.0053231455f, 0.03754458f, 0.046581417f, -0.0063700587f, 0.036063246f, 0.06613325f, 0.0015183564f, 0.041784164f, -0.009785588f, 0.008827969f, -0.03877583f, 0.00087844307f, 0.040617052f, 0.033129282f, 0.0038744062f, 0.036227744f, 0.039321244f, 0.020969072f, 0.05945913f, 0.058692466f, -0.040355567f, -0.022612847f, 0.05361389f, 0.06656891f, -0.034913305f, -0.032370724f, 0.018663948f, 0.05072546f, -0.024989579f, -0.06121844f, -0.034797f, 0.014138232f, -0.03940112f, 0.03646447f, 0.010581073f, 0.069580644f, 0.13689965f, 0.018045703f, -0.00738086f, -0.009403328f, -0.03199886f, 0.036704138f, -0.02294919f, -0.014735644f, -0.009891393f, -0.00101499f, -0.033514395f, -0.023162868f, -0.054468453f, 0.029434366f, 0.034511283f, -0.043387096f, -0.045568693f, -0.038735855f, -0.008372359f, 0.023561304f, -0.032382376f, -0.03216632f, 0.093227714f, -0.056060635f, 0.0048275036f, -0.020610493f, 0.022179494f, -0.0035470396f, -0.019307535f, 0.056380488f, 0.15014781f, 0.0076821875f, 0.13436697f, 0.1345878f, 0.069893196f, 0.14590934f, 0.18149583f, -0.01514959f, 0.020950628f, 0.0149537595f, -0.056320325f, -0.017772796f, 0.012066352f, -0.010732867f, -0.017648995f, 0.06224483f, 0.043754186f, 0.021665635f, 0.019462956f, 0.1011145f, 0.06865777f, -0.0543157f, -0.018167468f, -0.03384727f, 0.018520351f, 0.04159236f, 0.034009214f, 0.1275473f, 0.06424036f, -0.023444394f, 0.1452558f, 0.014312323f, -0.011400996f, 0.05248955f, 0.14259115f, 0.11329311f, 0.026403163f, -0.078285635f, -0.004334255f, -0.022527184f, 0.15482858f, -0.08295558f, -0.03624042f, -0.01713414f, 0.16007473f, -0.049259417f, -0.04986132f, -0.047980867f, 0.04646629f, -0.03414091f, -0.03270594f, -0.042000275f, -0.07630807f, -0.086199194f, -0.10913609f, -0.07135721f, -0.0011760284f, -0.015469887f, 0.36053136f, -0.034107074f, 0.0167574f, -0.06188647f, -0.08238651f, -0.035754997f, -0.058099076f, -0.09349221f, -0.10503522f, -0.041956663f, -0.057499368f, -0.038441565f, -0.087938905f, -0.06220869f, 0.054782506f, -0.091554664f, -0.13780293f, 0.17050354f, -0.07036064f, -0.11876564f, 0.06547788f, 0.13366905f, -0.05055095f, 0.042857558f, -0.07934922f, 0.14692149f, -0.04341165f, 0.15668844f, -0.05536472f, -0.08644344f, -0.05526667f, -0.051026534f, 0.0048328494f, -0.07441215f, -0.048026048f, 0.09269266f, 0.0025103774f, -0.06754613f, -0.059461806f, -0.026478987f, 0.09115559f, -0.042771097f, -0.07040701f, 0.060844727f, -0.10477084f, -0.060992252f, 0.0074334224f, 0.22954461f, 0.30316687f, -0.05858171f, -0.053233933f, -0.029350173f, -0.096687794f, -0.06883219f, -0.025467368f, -0.030257145f, -0.009698118f, -0.0061947443f, -0.09536599f, -0.12539344f, -0.041529328f, -0.1119501f, -0.07529537f, -0.04956859f, 0.05375592f, 0.0396388f, 0.034422163f, 0.05021936f, 0.040493187f, 0.013875898f, 0.019354861f, -0.019652143f, 0.04638611f, -0.033082828f, -0.0043343306f, 0.050433453f, -0.03244572f, 0.02031986f, 0.022305835f, -0.0092907995f, 0.0053702854f, 0.017621811f, 0.00043756515f, 0.0021420866f, 0.03845614f, 0.0092826f, 0.05481067f, 0.023911346f, -0.052607324f, -0.053801075f, 0.044678155f, -0.015454464f, 0.048916128f, 0.006675005f, -0.047477722f, -0.05050218f, 0.008054983f, 0.027069274f, 0.022812974f, 0.006432876f, 0.034811046f, -0.0051853396f, -0.02373514f, -0.025566379f, 0.012787897f, 0.014726225f, -0.032854028f, -0.044222277f, 0.0027241446f, 0.030784119f, 0.025723193f, 0.04078788f, 0.040427793f, -0.02534412f, 0.024486545f, -0.015836783f, 0.04525255f, 0.017965633f, -0.022576902f, 0.013261583f, -0.055280857f, 0.051121328f, 0.02765346f, -0.010422468f, 0.02060217f, 0.05492867f, -0.030001456f, 0.021447975f, 0.0090574585f, -0.042261284f, 0.04903372f, 0.042044286f, 0.003352709f, -0.050937336f, 0.026376728f, 0.046583828f, 0.014162023f, 0.027613904f, -0.053032015f, 0.013282526f, 0.020986442f, -0.019357946f, -0.010715749f, -0.016597375f, -0.035046495f, 0.010932783f, -0.05619717f, 0.019401455f, -0.04265604f, 0.022124216f, 0.022057764f, -0.007257884f, -0.040309515f, -0.018746806f, 0.003304273f, 0.023776645f, 0.0003405154f, -0.043016594f, -0.00928638f, -0.040427897f, -0.06820021f, -0.021212574f, 0.029827302f, -0.043570675f, 0.017082803f, 0.023382653f, -0.021313868f, -0.038623903f, 0.045795362f, 0.028498787f, -0.052939318f, -0.028780255f, 0.03981124f, 0.07376315f, 0.07059301f, -0.00055691204f, -0.02466421f, 0.03321045f, -0.031658888f, 0.033150524f, -0.03549728f, -0.044796996f, -0.020729838f, -0.04497829f, 0.050477214f, -0.037859783f, 0.0013702814f, -0.07186612f, 0.08095231f, 0.0011161345f, 0.0011865281f, -0.047030706f, -0.040734332f, -0.043056343f, 0.031863593f, -0.05078083f, 0.033838663f, 0.03727923f, 0.07279493f, 0.02833741f, -0.06319476f, 0.0061306967f, 0.08570279f, 0.03779599f, -0.010466334f, -0.050521027f, -0.058646254f, 0.020601707f, -0.04262798f, 0.00891528f, 0.061195508f, -0.022065623f, 0.042877637f, 0.05145195f, 0.038271595f, -0.05763535f, 0.009318736f, 0.01702824f, 0.06496071f, 0.019693712f, -0.059539154f, 0.025754876f, -0.044314187f, 0.051774863f, 0.071779005f, 0.036196057f, 0.13597688f, 0.40479973f, 0.06953578f, -0.18983041f, -0.27135822f, -0.32236692f, -0.13092923f, -0.22508475f, 0.006818785f, 0.05005673f, -0.18346699f, -0.16120417f, -0.2328381f, -0.18265137f, -0.34537625f, -0.2255977f, -0.20789027f, 0.66405636f, -0.2021451f, -0.31183198f, -0.24054106f, -0.16400613f, -0.15239969f, -0.38515744f, -0.16579589f, -0.16374226f, -0.20068131f, -0.21568902f, -0.098364905f, 0.23059665f, 0.25860482f, -0.18777314f, -0.1956077f, -0.17001815f, -0.21544176f, -0.13151735f, -0.1924232f, -0.07728201f, -0.31453338f, -0.030382967f, 0.23670165f, 0.62511754f, 0.53635204f, 0.91684544f, 0.48030955f, 0.29236948f, 0.007674032f, 0.6037102f, 0.7858249f, 0.62508553f, 0.5997364f, 0.43169153f, 0.073604345f, -0.22325185f, 0.018524732f, 0.2040646f, 0.4766507f, 0.2822724f, 0.16015838f, -0.23217784f, -0.18833031f, -0.14364265f, -0.06665081f, 0.46033385f, 0.6263025f, 0.14517409f, 0.016608635f, -0.094384834f, -0.17457606f, -0.07716748f, -0.010670827f, -0.1006785f, 0.0749574f, 0.107014515f, 0.07916007f, -0.03227668f, 0.046923783f, -0.15490943f, -0.076647505f, -0.1112435f, -0.17817096f, 0.018384378f, 0.027577879f, 0.0013828948f, -0.05025571f, -0.010414191f, -0.028155379f, -0.05210038f, -0.00586008f, 0.029011048f, -0.012345009f, -0.05877153f, -0.00021420419f, 0.042064212f, -0.026213752f, -0.015642166f, -0.04147091f, 0.009446854f, -0.0023275719f, 0.011227105f, 0.05535078f, -0.010221131f, 0.030273136f, -0.020306611f, 0.06749391f, -0.0016273111f, 0.0055218115f, -0.047026448f, -0.037887163f, -0.0251833f, -0.00998906f, 0.045890037f, -0.05672721f, -0.05541748f, -0.024651239f, 0.018020349f, -0.004060497f, -0.03187748f, -0.014988448f, -0.01244159f, 0.0072822254f, -0.019116402f, 0.010679078f, -0.024581846f, 0.017522769f, -0.042460047f, 0.022020418f, 0.0115262745f, 0.029201774f, -0.031296972f, -0.056630936f, 0.00894364f, -0.052078832f, -0.05585607f, 0.031741966f, -0.03384218f, 0.008964999f, 0.047244478f, -0.032472078f, 0.0012943953f, -0.07537203f, 0.049193345f, 0.023187831f, 0.012325715f, -0.028555222f, -0.034899574f, 0.04481476f, -0.065434426f, 0.013538219f, 0.06410577f, 0.022698926f, -0.046797566f, -0.027445385f, 0.015390933f, -0.020162519f, 0.043255977f, -0.024615873f, 0.01495919f, -0.07421986f, 0.015458352f, -0.0043456582f, -0.0028276986f, 0.026078183f, 0.012505754f, -0.0011983657f, -0.0144193f, 0.008028677f, 0.016682956f, -0.020103013f, -0.05044578f, -0.0603378f, 0.036622103f, 0.004540471f, -0.009028563f, -0.016676066f, -0.030065827f, 0.039020628f, 0.004471981f, 0.032211643f, -0.023713298f, 0.024599724f, 0.027797386f, -0.0118691875f, 0.026941968f, -0.06358232f, -0.07764862f, -0.0454065f, -0.024645545f, 0.03989036f, -0.008437265f, 0.024359094f, 0.021270005f, -0.05312667f, -0.012195043f, 0.011444874f, 0.04342372f, -0.046789933f, -0.04478222f, 0.04262914f, 0.024490127f, 0.016083272f, -0.022796936f, -0.03456384f, 0.020114796f, -0.02096208f, 0.03384847f, 0.0070447135f, -0.0682357f, -0.05466031f, -0.04152017f, -0.009377961f, 0.036626726f, -0.04063033f, -0.056830112f, 0.03701672f, 0.039911337f, -0.05282577f, -0.047503483f, -0.024751304f, -0.022957454f, -0.07488285f, -0.002295208f, -0.03851403f, -0.027485713f, 0.012882382f, 0.011423113f, -0.055440605f, -0.012501858f, 0.053662676f, 0.0047589676f, -0.014141087f, -0.026236564f, -0.07009148f, 0.026891574f, -0.005674484f, 0.020622937f, -0.004236446f, 0.007141176f, -0.046217978f, 0.023957126f, -0.05367891f, -0.06342585f, 0.014800796f, -0.03867802f, 0.007131789f, -0.034547552f, -0.010770708f, 0.01820807f, -0.037862062f, -0.0113525335f, -0.02297294f, -0.01509535f, -0.02898851f, -0.040050868f, -0.03413767f, 0.016001845f, 0.007736146f, 0.037158318f, 0.031789973f, -0.009248936f, -0.00879289f, 0.032270294f, -0.03703135f, 0.037224967f, 0.0038510356f, 0.039949514f, -0.033221267f, -0.007896605f, -0.011223058f, 0.01644968f, -0.023809837f, 0.021702146f, 0.0291762f, -0.032855246f, 0.0075825066f, -0.029083822f, 0.020860314f, 0.047171418f, 0.005193185f, -0.006542751f, -0.034352012f, 0.0066537894f, -0.04617866f, 0.0035988092f, 0.045683403f, 0.031964824f, 0.034758553f, -0.023267297f, -0.039257072f, -0.055725094f, -0.046733513f, 0.043026052f, -0.014076366f, 0.014827962f, 0.022404412f, 0.04807475f, 0.048109848f, 0.010859542f, 0.035026997f, -0.058257453f, 0.044094615f, 0.047065295f, 0.03949313f, -0.0020213665f, 0.04333195f, -0.05131628f, -0.010820575f, -0.005023303f, 0.03262447f, 0.010889139f, 0.0051274938f, 0.04450888f, 0.023398738f, 0.002551558f, 0.044614945f, 0.006587174f, 0.006364287f, 0.0027652676f, -0.044173654f, -0.02748343f, 0.011019506f, 0.042391036f, 0.042794205f, -0.020942084f, -0.01754688f, 0.00865332f, -0.003502338f, 0.03235863f, -0.028174205f, -0.021217547f, -0.008698249f, 0.012080389f, 0.05727285f, 0.004739327f, 0.0010347435f, 0.0042543644f, -0.010613905f, 0.03813227f, -0.040119123f, -0.038052816f, 0.04685351f, 0.010423236f, -0.041712876f, -0.04208353f, 0.037493f, 0.006959845f, 0.050721638f, -0.043536533f, 0.0005783729f, 0.0028003897f, 0.004888369f, 0.014301825f, -0.0047716126f, -0.02178642f, 0.058760118f, 0.03207727f, 0.013284286f, -0.027210547f, -0.043265253f, -0.03769466f, 0.0060154474f, -0.022346351f, 0.023173809f, 0.055855073f, 0.0057959617f, -0.02567414f, -0.017147414f, 0.042575356f, -0.007140242f, 0.053434823f, -0.017452102f, -0.04626801f, -0.026601609f, -0.04615525f, -0.040918104f, 0.018611126f, 0.016713168f, -0.033991862f, -0.023535322f, 0.0011894451f, 0.0064199655f, 0.048497662f, 0.060025096f, -0.029959777f, -0.005159038f, -0.03457009f, 0.041528884f, -0.026362091f, 0.018214239f, 0.047472678f, -0.012470871f, 